560 100
the 0.32472664 -0.3362629 0.08371719 -0.08028513 -0.14799249 -0.011940077 0.044270847 -0.58414346 0.03724055 -0.085847974 -0.35380754 0.24803331 0.102134064 0.30317977 -0.1614453 0.568288 0.12885806 0.15223761 -0.1510337 0.007260883 0.42472422 -0.016582077 0.19561201 -0.00812369 -0.2826049 0.3009332 0.014232097 0.5534918 0.22757947 -0.1831044 -0.08535477 0.09117886 -0.09095018 -0.23468368 -0.5563038 -0.11201433 0.1650963 0.5171539 0.17565839 -0.055176243 -0.27213567 -0.16578919 -0.21982564 -0.71839553 0.016803205 -0.21375626 -0.019932708 0.069475666 0.27520058 0.4104971 0.10262352 0.34521738 0.2680185 0.06893816 0.363116 -0.25789526 0.31632233 -0.4619939 -0.64627403 -0.04321516 0.069509484 0.00014172906 -0.14099231 -0.23586273 -0.20765048 -0.19187984 0.09959561 -0.41381225 0.010564846 0.008174811 0.12271831 -0.4066536 -0.27264696 0.3827421 -0.07307368 -0.093088076 0.03771194 0.21123241 -0.33738342 0.13715693 0.59521616 0.24017489 0.42681304 -0.39922845 0.15383796 0.36356845 0.1283923 0.4485445 0.5928315 0.11512812 -0.06289232 0.022992987 -0.03882731 -0.31018096 -0.1191997 0.036903873 -0.075074874 0.06741405 -0.06072175 -0.0304469
and 0.45555246 -0.25734055 0.02742027 -0.012362792 -0.12378576 0.047308136 0.12819529 -0.57618254 -0.012877845 -0.061753564 -0.27998543 0.24228594 0.10721388 0.19608803 -0.18941078 0.5034492 0.117176466 0.11930134 -0.19706905 0.016350364 0.37195188 -0.016210005 0.18985158 0.03250186 -0.249697 0.32707146 0.051400255 0.51112336 0.19158685 -0.2344696 0.004864122 0.067727886 -0.10601239 -0.21872224 -0.49336925 -0.021373982 0.1849821 0.47982538 0.26257357 0.07127331 -0.24855314 -0.19731894 -0.16888154 -0.6647648 -0.0022900405 -0.19574255 0.003693579 0.07286106 0.27786005 0.3269239 0.11753414 0.3946004 0.33687228 0.038097303 0.30985004 -0.28660083 0.28908285 -0.3775794 -0.6018566 -0.022581818 0.07997269 0.028688157 -0.0757731 -0.13912885 -0.2596687 -0.060236584 0.17328921 -0.34145132 -0.11958202 6.610415e-05 0.11182804 -0.3746293 -0.21317475 0.31011617 -0.024550447 -0.091685325 0.03519097 0.10659383 -0.24896237 0.11165728 0.4839349 0.21142592 0.4375088 -0.4143944 0.14401208 0.3230884 0.11167465 0.4138828 0.5013199 0.01028554 -0.042066485 0.044294447 -0.037839606 -0.25457218 -0.06289933 -0.001748023 -0.057936903 0.022873035 -0.04743953 -0.10133469
is 0.4039546 -0.30011007 0.07481162 0.0003193982 -0.13172027 -0.02027727 0.04891585 -0.60037917 0.0057214405 -0.13737555 -0.31662604 0.27081692 0.07332733 0.25868312 -0.20252647 0.5213682 0.107234426 0.11038587 -0.20325696 0.045435086 0.41135073 -0.029352996 0.18005037 -0.03793734 -0.28709128 0.32374257 -0.007469125 0.5086643 0.24367633 -0.19417195 -0.07718874 0.07619017 -0.078922465 -0.19368549 -0.50037646 -0.08695082 0.18995565 0.4315231 0.23196486 0.022006392 -0.28429002 -0.11785377 -0.14903376 -0.66368484 0.0685502 -0.19808696 -0.07482866 0.06555368 0.2467264 0.37319663 0.08141265 0.34001496 0.26789144 0.06891459 0.32779172 -0.2520368 0.30359754 -0.42241874 -0.56395763 -0.006248603 0.035364777 0.02988576 -0.1093579 -0.20111276 -0.31796655 -0.1769361 0.11336574 -0.41985658 -0.07330434 0.01624774 0.14483367 -0.43005967 -0.26339868 0.3568927 -0.0725972 -0.057094455 0.052698206 0.14001736 -0.27418682 0.079657644 0.5199916 0.23938768 0.41318417 -0.3646878 0.11884834 0.33995163 0.078998916 0.4251903 0.52696514 0.04240379 -0.102385096 0.01605346 -0.02542499 -0.31484205 -0.05868738 0.008243731 -0.1182541 0.030190034 -0.055002052 -0.066119686
a 0.5424149 -0.2734397 0.049757898 0.06364016 -0.13008958 0.04589939 0.12700604 -0.6572197 -0.017225662 -0.092984624 -0.28031415 0.29362476 0.11005674 0.18039902 -0.2680981 0.4954766 0.1143018 0.10692003 -0.24782693 0.07798839 0.40663898 -0.014287767 0.22473319 0.008387544 -0.26960024 0.35381114 0.008999338 0.5198822 0.2137958 -0.24881594 -0.0112217385 0.07421705 -0.091685966 -0.22171198 -0.5097254 -0.044319984 0.21542986 0.45387408 0.3171221 0.13547337 -0.29686725 -0.1823989 -0.11502443 -0.6676725 0.04425694 -0.23085938 -0.05521635 0.051652487 0.2771743 0.31816772 0.09057518 0.3891749 0.38340706 0.04205711 0.31897074 -0.29432502 0.2877627 -0.37887782 -0.5734676 0.01641096 0.07261266 0.041580074 -0.06532469 -0.1292114 -0.37957957 -0.068611436 0.17836383 -0.39218906 -0.18430011 0.003153563 0.16044134 -0.4261371 -0.2407178 0.32244334 -0.042389214 -0.07187132 0.028054848 0.07432674 -0.22943747 0.09909495 0.46446085 0.24674948 0.45210567 -0.3869306 0.1472227 0.33576155 0.073690705 0.4460807 0.4742773 -0.042951234 -0.080773875 0.025859851 -0.028263675 -0.2920435 -0.05092259 -0.021469304 -0.13715614 0.024926329 -0.07250183 -0.12559989
to 0.64086384 -0.28118458 0.07552201 0.14039043 -0.13603783 0.030243292 0.12826422 -0.7637465 -0.035043508 -0.17687774 -0.3072903 0.3462538 0.054950234 0.20365618 -0.31552157 0.5173941 0.09160542 0.076160334 -0.32274634 0.10521697 0.4276782 -0.05371189 0.19125342 -0.033144176 -0.30691457 0.41522542 0.009798382 0.5162201 0.26241362 -0.29320294 -0.032875724 0.058760352 -0.074578516 -0.1780727 -0.49345064 -0.0370982 0.2670493 0.4276386 0.35344934 0.2189258 -0.32004324 -0.14095809 -0.044140216 -0.6745378 0.09759054 -0.2367194 -0.1039417 0.078188695 0.2520119 0.33331057 0.09220867 0.4093572 0.3580651 0.069943264 0.33696935 -0.33841142 0.30478173 -0.42407304 -0.57222986 0.03528134 -0.0034164505 0.08517082 -0.053241514 -0.13131794 -0.50709206 -0.09450541 0.20435041 -0.44208896 -0.24884547 0.0026505375 0.18922335 -0.518049 -0.24860287 0.3449273 -0.043913405 -0.049994912 0.052609693 0.020463835 -0.2151889 0.0104731815 0.48269042 0.2613422 0.49083355 -0.38842514 0.1137492 0.35881808 0.046214473 0.45868492 0.5131648 -0.06417042 -0.1450076 0.021016058 -0.01183345 -0.30307937 0.028501868 -0.057598107 -0.18729104 -0.007384537 -0.058450136 -0.1642366
i 0.8182365 0.0009324771 -0.09325096 0.0027568545 -0.1274622 0.27786836 0.44742903 -0.52879775 -0.0776781 0.14787629 -0.11272625 0.15781625 0.08779762 -0.054339003 -0.23851076 0.56586653 0.0507544 0.1436815 -0.29590285 -0.037589315 0.28788114 -0.007988855 0.13212319 0.2903829 -0.15453476 0.46007094 0.3534495 0.44873834 0.084061705 -0.48442408 0.33451217 0.018142175 -0.27871636 -0.27407753 -0.500051 0.28512007 0.31909177 0.56016994 0.4956628 0.43647015 -0.061308064 -0.38052985 -0.1920597 -0.5817927 -0.26990864 -0.116876304 0.21013518 0.18461683 0.40889785 0.10490732 0.35645202 0.71495503 0.46164477 -0.059487063 0.26516673 -0.4813018 0.2109811 -0.16616684 -0.6676966 -0.13518341 0.14197206 -0.043185458 0.04589946 0.042593293 -0.15845397 0.43705046 0.5206195 -0.023258895 -0.4558429 -0.0020655869 -0.034669623 -0.18191585 -0.029645262 0.18630598 0.20733544 -0.12993754 0.036063388 -0.16930802 -0.12744913 0.023093745 0.3224077 0.06589805 0.52399707 -0.65912354 0.20141172 0.31871322 0.23366512 0.3989387 0.41453028 -0.17374888 0.063687734 0.14637703 -0.030695852 -0.021399664 0.074526094 -0.019607631 0.23342383 -0.0524741 0.069262005 -0.28718293
on 0.51660043 -0.22530197 0.0024493914 0.006025773 -0.11925282 0.086399265 0.15850319 -0.5888891 -0.019024344 -0.04146653 -0.2477495 0.24988791 0.101952545 0.15997525 -0.21188669 0.5286876 0.11136287 0.12555481 -0.22197719 0.021436136 0.37514678 -0.007100305 0.18381473 0.070636064 -0.22992055 0.35695314 0.08650499 0.5197031 0.17746668 -0.26647964 0.058202785 0.06267295 -0.14229485 -0.22989444 -0.50563943 0.019659428 0.21359704 0.4915237 0.31230313 0.15036356 -0.24297668 -0.21886674 -0.15800638 -0.64573884 -0.040071327 -0.18862464 0.021720948 0.07881841 0.30249712 0.29398733 0.15224233 0.43268898 0.36509323 0.007564514 0.30695078 -0.32759553 0.2940728 -0.34845895 -0.60947305 -0.027821964 0.0754259 0.0056661563 -0.050497524 -0.122663625 -0.26921564 0.005856124 0.2295127 -0.2993037 -0.16975228 0.01173195 0.09651727 -0.3498234 -0.19935974 0.30327678 -0.0043755122 -0.08907232 0.033604153 0.056168344 -0.23332421 0.08340323 0.46498266 0.20119736 0.45755336 -0.43920454 0.14470063 0.32383358 0.1267539 0.42362416 0.48674095 -0.023555983 -0.039053105 0.05080104 -0.029275099 -0.21729408 -0.051866222 -0.0069485595 -0.035546944 0.01564477 -0.030760653 -0.13431074
cookie 0.41775844 -0.38332748 0.17322797 0.16827953 -0.1323516 -0.08845086 -0.09244288 -0.75586987 0.023937033 -0.27442032 -0.35061345 0.3945073 0.050411787 0.2941203 -0.33969447 0.4474633 0.07470857 0.06768442 -0.292188 0.17483495 0.47336382 -0.013263797 0.21898435 -0.19180575 -0.3363442 0.32351413 -0.17065224 0.46586126 0.33618665 -0.17144701 -0.21819691 0.07737479 0.02379918 -0.102800794 -0.44517693 -0.21719377 0.2084866 0.28870937 0.251672 0.056722254 -0.41757324 0.012698888 0.026004879 -0.6499403 0.22803125 -0.28145427 -0.26424488 0.022310812 0.15730691 0.3928125 -0.03900557 0.19489586 0.24872279 0.12576482 0.3332532 -0.18808427 0.31469977 -0.47391194 -0.44734672 0.117280275 -0.036552954 0.10599392 -0.107258454 -0.1901761 -0.6012357 -0.35246184 0.007375057 -0.5815607 -0.0979297 0.009656948 0.28691107 -0.6057627 -0.33761773 0.39044103 -0.18112892 0.025246656 0.054566253 0.11416283 -0.2291322 0.01281078 0.4850157 0.35996506 0.36380163 -0.21422194 0.060251273 0.34631845 -0.06426861 0.4421901 0.4953503 0.008605703 -0.21273087 -0.047723148 0.016242255 -0.42815313 -0.013726197 -0.029869055 -0.38836643 0.037928432 -0.12878434 -0.061722055
in 0.4855782 -0.23713765 0.036390807 0.016986798 -0.12150569 0.056923576 0.14059798 -0.5717021 -0.020074071 -0.055790797 -0.26786342 0.23459488 0.07281021 0.1755164 -0.20590009 0.47940102 0.11288328 0.11045997 -0.21248852 0.024954079 0.34825408 -0.02319916 0.17379771 0.030347068 -0.24547055 0.33119845 0.0480067 0.47721836 0.1751738 -0.24205828 0.0204108 0.05009564 -0.11096274 -0.21670923 -0.47634208 -0.013562535 0.19339277 0.43486583 0.26782578 0.105221294 -0.23295826 -0.1716481 -0.13728863 -0.62483674 -0.007989781 -0.18556315 -0.0019011737 0.08275803 0.2734152 0.29220888 0.12622659 0.4013118 0.32242244 0.037119146 0.30670962 -0.28632578 0.27848905 -0.35753912 -0.5539328 -0.028620174 0.06663869 0.029309815 -0.0698784 -0.12616627 -0.27501073 -0.031593055 0.1842593 -0.31507316 -0.15431336 0.016157968 0.10798627 -0.3647936 -0.1890727 0.28671017 -0.0019315111 -0.08076954 0.03966391 0.07333955 -0.21824574 0.078343526 0.4504467 0.1933126 0.41909045 -0.41519183 0.14133365 0.3116495 0.10114878 0.39907745 0.4674637 -0.015478195 -0.04371769 0.05120452 -0.022662645 -0.24832693 -0.026210187 -0.018477537 -0.060052425 0.015577207 -0.034022264 -0.12146329
shes 0.5878421 -0.1849907 -0.020267721 -0.07272465 -0.13628265 0.12047793 0.26900488 -0.55999327 -0.0251434 0.045269005 -0.24955608 0.2018943 0.10582629 0.14707766 -0.16537681 0.5650588 0.13757978 0.13309342 -0.2104183 -0.033396162 0.33836251 -0.032051936 0.17657422 0.13182843 -0.23276769 0.39059922 0.16732158 0.55247885 0.15266766 -0.31340957 0.12464256 0.032275807 -0.17463684 -0.2689222 -0.5529916 0.0909555 0.2237765 0.5773263 0.3207059 0.15389495 -0.15222594 -0.29178968 -0.22669311 -0.6932752 -0.11245893 -0.15401132 0.1114138 0.116494305 0.34567428 0.30766353 0.23345153 0.552674 0.39441094 0.0127807185 0.31831378 -0.38145074 0.27547544 -0.34022573 -0.6820648 -0.11984444 0.12381087 -5.529246e-05 -0.0755708 -0.10657137 -0.17853124 0.09726061 0.3055468 -0.25915638 -0.20868532 0.0010394077 0.052441668 -0.317344 -0.15555204 0.29630426 0.06812322 -0.13208383 0.043089736 0.06591437 -0.24367125 0.10776947 0.48825648 0.14002965 0.50716954 -0.56153315 0.17779659 0.3526488 0.1925539 0.43717006 0.52203083 -0.018890962 0.017661534 0.089520834 -0.06395353 -0.17310855 -0.032728583 0.011879812 0.10423398 0.0042646714 -0.003701468 -0.16284004
dishes 0.42490703 -0.1878021 -0.01771262 -0.14925446 -0.11850691 0.10081006 0.23527245 -0.45012176 -0.017122427 0.07070734 -0.23793852 0.13962922 0.11234776 0.17467397 -0.08588195 0.5579921 0.13400704 0.15884624 -0.13847418 -0.07324744 0.3065287 -0.036598593 0.14152901 0.11951474 -0.22456361 0.32638612 0.16404404 0.5241957 0.1362216 -0.26534176 0.0982089 0.03182029 -0.17519003 -0.26070544 -0.53742105 0.06325837 0.18400925 0.5685142 0.22914954 0.055244196 -0.114197 -0.27174982 -0.2832631 -0.6789554 -0.125754 -0.11416983 0.15277569 0.124495916 0.33309668 0.2962188 0.21508628 0.513911 0.32106885 0.020221677 0.31315458 -0.32702214 0.2613945 -0.33671215 -0.68105793 -0.1507627 0.14056505 -0.039132986 -0.090318345 -0.14054893 -0.04959728 0.08302904 0.2588411 -0.21941732 -0.096858956 -0.01748104 0.0001505168 -0.25097296 -0.14400738 0.28531736 0.07308352 -0.1430681 0.046413165 0.13382292 -0.26101688 0.12678215 0.4924435 0.1086595 0.46647224 -0.53056794 0.18736945 0.3239668 0.2275769 0.39678434 0.5250568 0.0598717 0.029339766 0.08566951 -0.07077799 -0.15666236 -0.06632604 0.044556085 0.15636864 0.017477889 0.020809988 -0.09903199
over 0.416662 -0.22783892 0.021767806 -0.054476585 -0.12851329 0.036262617 0.12557483 -0.52811056 -0.006667105 -0.044498283 -0.27241537 0.21684556 0.071956374 0.19849351 -0.15134454 0.52780384 0.09491032 0.13004579 -0.17060204 -0.0061028795 0.36104462 -0.02278271 0.15142444 0.05698303 -0.2289503 0.32721955 0.090774715 0.49586302 0.1792145 -0.24142714 0.020019913 0.06186901 -0.12679932 -0.21423347 -0.4941111 0.001278341 0.18662032 0.48979908 0.23946972 0.066119894 -0.20232052 -0.19118568 -0.19317457 -0.64026195 -0.040727787 -0.16320606 0.02907526 0.10744313 0.28453243 0.3254211 0.14815074 0.4050615 0.28226867 0.034170657 0.31431568 -0.29514495 0.27419758 -0.36758348 -0.6040013 -0.05497386 0.06438606 0.00043786594 -0.086378574 -0.17217307 -0.17682433 -0.03900114 0.19930555 -0.29948285 -0.09333255 0.009216987 0.08517537 -0.32064804 -0.202358 0.3183963 -0.0046571973 -0.09322624 0.04800564 0.097701855 -0.26723394 0.0887489 0.50047934 0.18223308 0.43469912 -0.4283157 0.1429008 0.3202744 0.14389499 0.4111474 0.5135016 0.033657815 -0.03959044 0.05610661 -0.035035465 -0.22034582 -0.04682333 0.0044638757 0.011599181 0.026495729 -0.025599621 -0.084373444
it 0.7012464 -0.11396235 -0.042756304 0.037313893 -0.12600276 0.17791522 0.31610128 -0.582778 -0.05322237 0.03774559 -0.18701145 0.20861903 0.08769154 0.056643665 -0.21989334 0.5317781 0.10809806 0.12476791 -0.2619992 0.012480004 0.32067016 -0.027728556 0.16479886 0.18243067 -0.20436336 0.41942546 0.20104274 0.48192415 0.12866904 -0.3706759 0.18788853 0.02454624 -0.192095 -0.2537149 -0.5039008 0.15813209 0.26324895 0.5352265 0.41373792 0.30948505 -0.13623695 -0.29387814 -0.16382991 -0.6200988 -0.14489058 -0.16694006 0.09996987 0.13208123 0.35133043 0.22368006 0.23720905 0.5785562 0.42510206 -0.029523646 0.29645884 -0.40875936 0.24730867 -0.26434386 -0.6229324 -0.06982169 0.08588951 -0.0060162935 -0.007876043 -0.046528716 -0.23422177 0.21281955 0.37263983 -0.18624319 -0.3419052 0.009261314 0.056763828 -0.2884634 -0.10060527 0.2501519 0.09872369 -0.11239177 0.028751642 -0.063422136 -0.16251366 0.05387467 0.3887948 0.12758061 0.49469683 -0.5524675 0.16766524 0.31441653 0.16706061 0.41488856 0.46164578 -0.11939265 -0.011827902 0.09471744 -0.030056713 -0.13370028 0.03047553 -0.03329008 0.09097542 -0.033831436 0.003997643 -0.22276522
her 0.6392362 -0.27188894 0.045464233 0.07108435 -0.14035536 0.026830915 0.1757682 -0.7368954 -0.03330416 -0.124463394 -0.30639896 0.32579908 0.07294127 0.20993093 -0.28346577 0.51760626 0.11716137 0.07730033 -0.29189673 0.06805984 0.3991888 -0.06506142 0.20505218 -0.04916416 -0.3148442 0.39509887 0.01995092 0.5557503 0.2332939 -0.29330295 0.0015178036 0.037915993 -0.08545959 -0.20015182 -0.5219934 -0.046605766 0.24058174 0.45960277 0.33981085 0.17298788 -0.27912214 -0.1673462 -0.08295805 -0.7188286 0.059130464 -0.21252875 -0.054693807 0.083747216 0.26864687 0.35709462 0.13037448 0.43245342 0.39245212 0.07622363 0.34867123 -0.3288116 0.2970074 -0.43417037 -0.61068153 -0.014584775 0.0417688 0.08293969 -0.09315185 -0.13341972 -0.45423213 -0.082444906 0.21054523 -0.4410708 -0.22840312 0.008709551 0.17691629 -0.5007627 -0.23216678 0.33025473 -0.009502362 -0.0690193 0.060560256 0.058561966 -0.20266256 0.054698437 0.48636886 0.24551518 0.5160706 -0.44472075 0.14306845 0.3809793 0.085434906 0.46194023 0.51234823 -0.056164265 -0.07183568 0.03737149 -0.032880828 -0.30633116 0.003992672 -0.039732702 -0.13907178 -0.012485877 -0.048146017 -0.16659966
jar 0.3902299 -0.37611425 0.18124373 0.16716349 -0.12608774 -0.103976496 -0.09877518 -0.74053264 0.021553723 -0.28361183 -0.34763616 0.39078203 0.04875146 0.30851614 -0.33582345 0.44161215 0.05704654 0.0797335 -0.28835458 0.16832803 0.47678587 -0.016453879 0.21615238 -0.19397512 -0.3273112 0.30682623 -0.16208844 0.4629947 0.32086882 -0.14487217 -0.20698111 0.09689026 0.013541946 -0.1082302 -0.45003995 -0.22145496 0.18753375 0.2807622 0.23381604 0.046196867 -0.42518342 0.023011848 -0.0043466906 -0.61169326 0.22216944 -0.2810378 -0.2682284 0.011592866 0.14694132 0.36877614 -0.05391017 0.19398978 0.22348258 0.10509063 0.33277202 -0.18786533 0.31176844 -0.47912085 -0.43747175 0.13400179 -0.039848678 0.098981686 -0.10066612 -0.20367694 -0.5760481 -0.3570755 0.002589526 -0.5520903 -0.08934926 0.029873764 0.26777893 -0.57242876 -0.35646605 0.3914077 -0.1653258 0.034416847 0.037148144 0.11154323 -0.23900807 0.02794787 0.47035146 0.3466191 0.36314982 -0.19719629 0.06586436 0.32811815 -0.059884757 0.42973238 0.4771385 -0.00091352826 -0.22987795 -0.058868937 0.01490232 -0.4304702 -0.039978437 -0.04282512 -0.38533872 0.050729427 -0.1146141 -0.044758704
sink 0.37833804 -0.19657584 -0.007723 -0.14445224 -0.13535509 0.08176756 0.18446276 -0.43365324 -0.0040351 0.044548057 -0.25450996 0.15414293 0.09607042 0.19094242 -0.075560704 0.54802257 0.13552824 0.1503052 -0.116851196 -0.06752921 0.31894356 -0.02888968 0.15071185 0.120565884 -0.21664183 0.30700055 0.13945663 0.51194286 0.12935749 -0.24726595 0.076891266 0.054630566 -0.16017663 -0.24714132 -0.51453215 0.035955857 0.16128132 0.54143256 0.20427196 0.026768409 -0.13805778 -0.25212818 -0.27150908 -0.6527867 -0.12081191 -0.12795448 0.13453855 0.106586635 0.31821045 0.31059274 0.18487161 0.465456 0.29799762 0.018039837 0.30262226 -0.31044316 0.25944352 -0.32926702 -0.66158825 -0.11401856 0.12354537 -0.026897972 -0.0993528 -0.15642658 -0.053695306 0.031265244 0.22037388 -0.23404413 -0.063053064 -0.003091789 0.021552896 -0.24043067 -0.15884738 0.2896538 0.0497902 -0.13238192 0.03601554 0.13638508 -0.27384844 0.1402134 0.49505657 0.12955861 0.44654262 -0.49502394 0.17536937 0.3161607 0.2006846 0.3934648 0.5236287 0.055481654 0.028822256 0.090104945 -0.060081612 -0.18010725 -0.083669946 0.023831565 0.11710747 0.020442052 0.00979 -0.085741505
water 0.42407638 -0.17809509 -0.020391814 -0.13937388 -0.13320613 0.09180544 0.2100428 -0.44024125 -0.014631391 0.05225067 -0.24587597 0.1557043 0.08673361 0.17166433 -0.08316659 0.5558431 0.12297906 0.15465952 -0.12913585 -0.069927044 0.31496993 -0.017158348 0.1356812 0.13996829 -0.21337384 0.32008427 0.16385387 0.51221097 0.11932944 -0.2569358 0.090535276 0.04601025 -0.17843033 -0.2568419 -0.5119442 0.058489226 0.1758577 0.5524021 0.22218949 0.063009776 -0.12125065 -0.25615054 -0.27437502 -0.65455556 -0.13808595 -0.12863505 0.13313848 0.12023215 0.3297182 0.30227637 0.20766991 0.489956 0.30334696 0.0020189397 0.3150353 -0.323056 0.26247928 -0.3224306 -0.66412956 -0.118037835 0.11504119 -0.033550855 -0.09343331 -0.15162063 -0.059906244 0.06275295 0.24431908 -0.2192315 -0.096199624 0.0038911495 0.0082936585 -0.22802486 -0.14325233 0.29371768 0.07060297 -0.12976044 0.044430107 0.103064984 -0.26465413 0.11979003 0.4868271 0.12022023 0.4532945 -0.51962715 0.17691697 0.31691834 0.20898762 0.39756435 0.52461016 0.046468396 0.026219979 0.09027878 -0.062096994 -0.17018898 -0.06247341 0.01808186 0.13110285 0.018042583 0.009745873 -0.09502264
that 0.687851 -0.12609218 -0.03682548 0.03074136 -0.12726384 0.16370367 0.30340555 -0.5891331 -0.050789367 0.02914808 -0.190723 0.21718413 0.0897157 0.06048895 -0.2351288 0.5471015 0.09017837 0.12730086 -0.27534533 0.009410079 0.34033918 -0.020529516 0.16335171 0.16261528 -0.20163038 0.4199779 0.20111166 0.4897112 0.14786614 -0.3801604 0.17600556 0.036783997 -0.19758794 -0.24469449 -0.50452816 0.14979535 0.27778518 0.52736294 0.41726226 0.3117088 -0.16043046 -0.28718013 -0.16454504 -0.6198683 -0.13365594 -0.16779925 0.09338658 0.12880222 0.3528991 0.21117999 0.23925371 0.5786261 0.41085267 -0.017889671 0.2911388 -0.40420893 0.2556554 -0.2698248 -0.6370512 -0.06983732 0.09097818 0.0009754513 -2.5672176e-05 -0.045567356 -0.25098482 0.20413604 0.36992723 -0.2028186 -0.3341141 0.00230874 0.050330665 -0.2958031 -0.11912458 0.25509024 0.09506556 -0.10501103 0.04080449 -0.061076496 -0.17797157 0.04795201 0.39630747 0.14574972 0.4957993 -0.55193484 0.1627986 0.32679346 0.15813872 0.42652285 0.46954742 -0.104267426 -0.021268185 0.09974157 -0.023379672 -0.14539605 0.022424402 -0.023671908 0.07894913 -0.036617327 0.008770203 -0.21711397
hes 0.5020866 -0.35506544 0.1376864 0.17721549 -0.12574105 -0.049857493 -0.039560575 -0.7611175 0.0015943797 -0.26605514 -0.3396786 0.37987813 0.042389963 0.28040236 -0.3284771 0.49569798 0.06805641 0.07989489 -0.3041674 0.15542419 0.48259038 -0.021051217 0.20336007 -0.12845726 -0.31823593 0.36344987 -0.11103998 0.48576015 0.31866312 -0.1977094 -0.16085154 0.09116196 -0.019598175 -0.14161582 -0.47710997 -0.15552382 0.23303303 0.33610243 0.28957435 0.12601092 -0.39535743 -0.041044574 -0.0017715872 -0.661576 0.20502834 -0.2772399 -0.22242941 0.03607077 0.19014329 0.3834132 -0.006282096 0.2530928 0.2720986 0.09270254 0.34109297 -0.25704426 0.319386 -0.4676758 -0.49130756 0.11402449 -0.0284528 0.09815989 -0.07572396 -0.20234287 -0.5705602 -0.28285578 0.06985416 -0.5331442 -0.14365111 0.019158116 0.25956815 -0.57726187 -0.32721606 0.39281222 -0.15340662 0.009210827 0.050263252 0.079623856 -0.24232659 0.016277585 0.50198036 0.32974294 0.40404582 -0.26231647 0.07140477 0.34183535 -0.03547699 0.45698124 0.50154203 -0.022847705 -0.21918121 -0.03126643 0.011356988 -0.39261642 -0.016415158 -0.045040276 -0.31797057 0.030238435 -0.110132866 -0.09416894
little 0.47334173 -0.30505508 0.0979499 0.1115105 -0.12587687 -0.021734739 0.027827496 -0.68200505 0.002881711 -0.17897509 -0.29987288 0.3292146 0.067798816 0.23310547 -0.2908183 0.45739946 0.07693545 0.0796841 -0.27528515 0.101470314 0.4106695 -0.030313263 0.20580599 -0.087927 -0.28666744 0.3414773 -0.057999197 0.47412717 0.25964838 -0.2100581 -0.096967705 0.0634459 -0.045654103 -0.14525865 -0.45041317 -0.12022117 0.2041229 0.36479846 0.28359982 0.09547903 -0.32536393 -0.07795138 -0.05662657 -0.6256274 0.13056284 -0.23850821 -0.1435159 0.044295087 0.19733256 0.33558974 0.04930025 0.30002782 0.2895437 0.08144237 0.31440413 -0.24328677 0.28391185 -0.41782266 -0.487689 0.05800326 -0.006132288 0.06935685 -0.085056 -0.15296811 -0.47109318 -0.19801451 0.11761813 -0.4646404 -0.1561073 0.008297145 0.20529328 -0.5029057 -0.26739863 0.34530476 -0.08804993 -0.013822687 0.05209983 0.07185329 -0.21967098 0.031636115 0.45557842 0.2721917 0.41732514 -0.2911979 0.09460803 0.3365847 0.008935177 0.4233302 0.48588344 -0.015379193 -0.14592694 -0.005851193 -0.011095809 -0.3322441 -0.015968554 -0.032552022 -0.22664262 0.016592542 -0.075528175 -0.09389658
stool 0.39015302 -0.33403358 0.12608676 0.11837533 -0.11324862 -0.04981483 -0.048676472 -0.65023625 0.016248018 -0.22352901 -0.30202463 0.32822996 0.04949279 0.25297487 -0.2766814 0.46105364 0.07423568 0.094381616 -0.23884971 0.12229581 0.43362597 -0.017612442 0.18640392 -0.097723305 -0.27758592 0.31375438 -0.080985524 0.45072755 0.2849698 -0.1628355 -0.14103808 0.08155478 -0.035928674 -0.1414137 -0.43911487 -0.14546457 0.1975934 0.3326223 0.23214139 0.060021028 -0.34384763 -0.04917373 -0.0413416 -0.59582525 0.15757704 -0.24214005 -0.17773068 0.03962788 0.18282518 0.35684034 -0.009643916 0.22710203 0.23485771 0.06446341 0.31608984 -0.2145356 0.29047978 -0.4361003 -0.48092088 0.08457258 -0.00925236 0.058823194 -0.08217575 -0.2014788 -0.44087648 -0.26309213 0.046230122 -0.47996053 -0.077768706 0.015480419 0.21100263 -0.49610195 -0.28968564 0.36282334 -0.143154 -0.012187209 0.045597248 0.103041925 -0.24330631 0.03450295 0.4679877 0.28516644 0.35882968 -0.24011897 0.08139541 0.30131358 -0.00225325 0.42141524 0.47081912 0.009906583 -0.18232249 -0.022516338 0.0049209376 -0.34325683 -0.05113065 -0.019213561 -0.24767646 0.030434012 -0.09173171 -0.06542558
boy 0.37159806 -0.29225963 0.105045155 0.09502603 -0.113321155 -0.03772241 -0.014048286 -0.5988203 0.009737926 -0.17445071 -0.2717933 0.29502973 0.051018726 0.22473192 -0.2542075 0.4210148 0.070222616 0.09085453 -0.22237246 0.104374416 0.38856983 -0.019995002 0.18318778 -0.086670876 -0.2655593 0.2846057 -0.06645917 0.43166798 0.2428916 -0.16210622 -0.11812065 0.057259634 -0.044560973 -0.13155374 -0.4115566 -0.12528943 0.17535634 0.31154066 0.22902063 0.070101865 -0.30252516 -0.052121498 -0.05729774 -0.5563102 0.11566416 -0.2132542 -0.13628387 0.03780057 0.177631 0.31608108 0.012737783 0.24671595 0.22450924 0.06746857 0.28419504 -0.20565073 0.26733613 -0.38315362 -0.4476045 0.058376662 -0.00039788228 0.061946902 -0.0734493 -0.16475771 -0.40351743 -0.21035846 0.07531989 -0.41395518 -0.09991683 0.01195126 0.18084407 -0.43854913 -0.26129344 0.3190928 -0.09577911 -0.009063298 0.046916325 0.08411802 -0.2085885 0.04396039 0.4197966 0.2591432 0.35139 -0.24793498 0.079328775 0.2893257 0.009060621 0.38021886 0.44062868 0.0083757015 -0.14655647 -0.010741056 -0.010694003 -0.31465507 -0.033310745 -0.028845755 -0.21839434 0.026521942 -0.07555853 -0.071949616
of 0.59015715 -0.23063423 0.009215207 0.03458979 -0.13225432 0.09360383 0.20458986 -0.6378175 -0.019497959 -0.046682972 -0.26437974 0.2612128 0.08302813 0.14841774 -0.23685703 0.5479851 0.1186107 0.11979726 -0.25798118 0.0406104 0.38706595 -0.024871975 0.19197415 0.07628362 -0.25301373 0.3837439 0.09924993 0.5259104 0.18368185 -0.2957524 0.0642191 0.053021558 -0.14589666 -0.24570069 -0.5153836 0.036795393 0.24030976 0.5086974 0.35089004 0.17639646 -0.23675846 -0.23766495 -0.1614444 -0.67397505 -0.04476599 -0.20588677 0.013443694 0.10399914 0.32324284 0.29666248 0.16773336 0.4750229 0.38924104 0.020341778 0.3299001 -0.3487841 0.29537326 -0.36043477 -0.6364839 -0.03376374 0.07822235 0.017481165 -0.045378685 -0.1118102 -0.30546293 0.022476796 0.25686854 -0.31532788 -0.2241773 0.01767703 0.113047674 -0.36833516 -0.18782246 0.31402674 0.018218853 -0.09509371 0.03731374 0.03539344 -0.23298465 0.085574366 0.47243324 0.20275263 0.47035256 -0.48649257 0.14509259 0.3465991 0.11786099 0.43816674 0.5118775 -0.036807086 -0.047568105 0.06755763 -0.027203698 -0.23515964 -0.011735639 -0.02672407 -0.03182283 0.009940688 -0.03427547 -0.15444802
thats 0.7170779 -0.10988495 -0.05761115 0.026173258 -0.13104701 0.20676024 0.3340235 -0.5576997 -0.06060041 0.050558403 -0.19033265 0.18978533 0.07521221 0.042682502 -0.2365903 0.54757667 0.07879162 0.12570171 -0.28644547 -0.007027641 0.32780236 -0.02065379 0.1511686 0.2081395 -0.18309881 0.42226356 0.24676198 0.47129634 0.13302366 -0.4012862 0.20230576 0.03564924 -0.2132576 -0.25163516 -0.49936783 0.18397088 0.27154502 0.52518255 0.4152221 0.32155994 -0.13730466 -0.3075506 -0.16243097 -0.60933477 -0.17823529 -0.14493276 0.12612052 0.1454982 0.3593863 0.1934584 0.2599175 0.59536594 0.42764592 -0.04286861 0.29677728 -0.42712486 0.25050822 -0.2513013 -0.64234006 -0.06609585 0.092693 -0.019189576 -0.0052985493 -0.02745327 -0.21890278 0.24651855 0.40267515 -0.1497645 -0.34752107 0.015175006 0.031647734 -0.2547016 -0.09830228 0.23693697 0.11995768 -0.11955457 0.03408186 -0.09681638 -0.16540138 0.044872295 0.38060173 0.11436029 0.49749014 -0.58129674 0.16990028 0.3178694 0.17877838 0.41221693 0.45659497 -0.1249583 -0.010718265 0.098858915 -0.027806843 -0.10976566 0.04037846 -0.021812104 0.11794039 -0.03338744 0.024380965 -0.23784032
see 0.67150116 -0.04959209 -0.07863697 -0.014592976 -0.12625912 0.22257502 0.3592581 -0.48662046 -0.044576947 0.11144017 -0.13834387 0.15284754 0.08501121 -0.011491716 -0.19206913 0.501387 0.076216266 0.12606911 -0.26115674 -0.025813688 0.28371125 -0.00041486035 0.14313425 0.23439872 -0.1542202 0.3923073 0.2779584 0.44260824 0.08037958 -0.39140007 0.25507376 0.025056794 -0.2419302 -0.2653973 -0.4696245 0.22608112 0.26124954 0.51500237 0.40064463 0.32561308 -0.08757942 -0.34405062 -0.19980761 -0.55227613 -0.20404977 -0.11274156 0.16067114 0.1492803 0.37293577 0.1540048 0.28108048 0.59870434 0.4152725 -0.039745774 0.24746878 -0.428701 0.21643914 -0.18461168 -0.63140225 -0.10080147 0.11771763 -0.03143589 0.021042913 0.0025280518 -0.13580416 0.33022478 0.41152927 -0.06153937 -0.35475138 0.009269447 -0.011647355 -0.19193026 -0.05968045 0.19862242 0.1561194 -0.10996204 0.027070327 -0.10403207 -0.14714257 0.051673435 0.33340567 0.07336002 0.46838808 -0.577994 0.16389696 0.27860284 0.18883952 0.36274794 0.40917933 -0.11564017 0.034071837 0.111518845 -0.039785933 -0.06310635 0.025755977 -0.018523192 0.1854854 -0.035014182 0.041388404 -0.21845078
girl 0.46586555 -0.29630917 0.09749595 0.11106624 -0.12690972 -0.0321796 0.034852713 -0.6681228 -0.006810609 -0.17978436 -0.28662908 0.33145103 0.069200166 0.2277558 -0.28695792 0.4586888 0.08868364 0.08151181 -0.25745213 0.112532645 0.4086071 -0.037956387 0.19549257 -0.09849503 -0.29380545 0.32923347 -0.05527821 0.46776855 0.25402075 -0.20311522 -0.102363676 0.059974775 -0.044220995 -0.14433151 -0.44579434 -0.110231064 0.20712301 0.34306803 0.27378723 0.108272076 -0.32403454 -0.07647388 -0.051140122 -0.60790145 0.1146104 -0.21984029 -0.13738613 0.052817985 0.20464177 0.33085716 0.032366727 0.30276638 0.27500156 0.07829893 0.30753022 -0.23822093 0.27741122 -0.40844914 -0.48378634 0.04837772 0.009157485 0.08209041 -0.08397144 -0.15271617 -0.45510137 -0.19168723 0.1153853 -0.4546523 -0.14891106 0.01769726 0.18980066 -0.48390162 -0.2704335 0.33775526 -0.082220756 -0.016129632 0.052586924 0.073336355 -0.20917392 0.034594577 0.4490957 0.2754821 0.40146747 -0.29729596 0.08957003 0.3286636 0.021442255 0.40750358 0.47509295 -0.014232187 -0.14121075 -0.011770065 -0.01067369 -0.33632678 -0.017632714 -0.036056302 -0.22856028 0.012597777 -0.07298359 -0.092930466
cookies 0.4633169 -0.34865123 0.13664927 0.122428305 -0.14361672 -0.03327265 -0.0035657494 -0.72438097 0.01680329 -0.21382028 -0.33161247 0.35809085 0.05209594 0.2616012 -0.3023384 0.49613395 0.07386056 0.102998696 -0.27137592 0.13556615 0.45724183 -0.027182655 0.21073796 -0.111916885 -0.30002725 0.34297633 -0.08516497 0.49661925 0.2925173 -0.20622416 -0.138711 0.087351896 -0.035258286 -0.14223467 -0.48129785 -0.14803752 0.21824299 0.3574661 0.2681178 0.08937322 -0.36635914 -0.062127303 -0.04807959 -0.6481063 0.1515694 -0.2626458 -0.18005244 0.049394794 0.20449328 0.36361593 0.015285684 0.28198925 0.27158043 0.09100609 0.3404273 -0.25129983 0.3151828 -0.4461328 -0.5155435 0.06273441 -0.011365669 0.0743605 -0.08776144 -0.17849414 -0.50476116 -0.24738847 0.09203087 -0.4987346 -0.12411039 0.010148466 0.22925788 -0.52290004 -0.30537072 0.3904054 -0.12385086 -0.007656412 0.04746569 0.08789917 -0.25512472 0.02965025 0.49509528 0.3094059 0.41238827 -0.29290316 0.08344637 0.3554045 -0.002193292 0.43665206 0.5099201 0.006024515 -0.18081959 -0.018975206 0.003630284 -0.37063366 -0.020841975 -0.026852285 -0.27430677 0.025119182 -0.092359364 -0.085092984
she 0.6432175 -0.17391159 -0.028772429 -0.01753374 -0.12884828 0.12277878 0.27478367 -0.5989247 -0.048934724 0.0143804 -0.22972456 0.2194617 0.10057171 0.1254655 -0.20796734 0.56388694 0.12515809 0.12768684 -0.24342112 -0.0024699871 0.345758 -0.04496015 0.18041344 0.12453073 -0.23221877 0.40706253 0.16396692 0.5304126 0.15343817 -0.34329024 0.13547422 0.03498901 -0.17527746 -0.25301468 -0.5255177 0.09159092 0.25367585 0.5490563 0.3632821 0.22085252 -0.17760473 -0.2719663 -0.18590796 -0.6765727 -0.09482191 -0.16765215 0.08064488 0.114864565 0.3474316 0.28023824 0.22402936 0.5403466 0.41468084 0.008941101 0.32253978 -0.38954008 0.2673413 -0.32931015 -0.66388917 -0.08438253 0.09715454 0.008166382 -0.055445366 -0.096153446 -0.24746989 0.11167196 0.32407308 -0.26754084 -0.2668311 0.0019751568 0.06396158 -0.3328462 -0.1527122 0.28243643 0.07400211 -0.115713134 0.04281428 0.017422738 -0.2031919 0.07999195 0.4616883 0.15473714 0.5097665 -0.5494559 0.17369914 0.34100625 0.17848513 0.44060758 0.4964982 -0.061544105 -0.005908237 0.08879159 -0.042445958 -0.18697967 0.0035186424 -0.007845149 0.061832078 -0.021247614 -0.0054258546 -0.18813214
there 0.614771 -0.13914166 -0.0539445 0.0031037645 -0.12648004 0.16699941 0.2893228 -0.5447643 -0.04548543 0.0499371 -0.1954632 0.2016083 0.099691905 0.06513053 -0.1922921 0.50788367 0.12287856 0.124446735 -0.23217495 0.008084 0.31907266 -0.027649883 0.17596759 0.16471055 -0.19079064 0.36924168 0.18058467 0.48831585 0.11295073 -0.33253327 0.16847178 0.047127053 -0.1920765 -0.26092365 -0.49469978 0.120007314 0.22952192 0.52833873 0.35683388 0.23766822 -0.15753593 -0.30001152 -0.1798885 -0.6030995 -0.13390593 -0.17006725 0.11178379 0.11061806 0.34054828 0.2220392 0.22639179 0.530811 0.41777217 -0.017970935 0.27453 -0.3731248 0.2494773 -0.2675718 -0.617508 -0.07987468 0.1150347 -0.011312029 -0.013412926 -0.053914256 -0.19788644 0.18185182 0.3162557 -0.19183701 -0.27415353 0.0033865653 0.04004709 -0.2566887 -0.11395194 0.24591355 0.080118135 -0.11672743 0.026310366 -0.013910404 -0.19323301 0.093615025 0.3898426 0.12818801 0.4708801 -0.5303139 0.16320525 0.30992895 0.16171299 0.3966042 0.44736838 -0.07030562 0.014256179 0.09912552 -0.037732333 -0.13718227 -0.013490834 -0.023567054 0.08765496 -0.007982548 0.0035779781 -0.18465777
up 0.5164733 -0.29435706 0.0876042 0.116618946 -0.12371697 -0.0135161765 0.06315727 -0.6908921 -0.009211765 -0.18237148 -0.29329962 0.32904348 0.06417121 0.21251608 -0.29037672 0.45821458 0.08690058 0.07144914 -0.2711731 0.108846605 0.40273404 -0.042342618 0.20328048 -0.08645391 -0.29467154 0.34409294 -0.05044806 0.474216 0.25945374 -0.21754587 -0.072461784 0.05397465 -0.04307729 -0.14618881 -0.4553251 -0.101891525 0.2137851 0.35841662 0.29561594 0.12729925 -0.3136738 -0.08975556 -0.03127404 -0.62363076 0.11713251 -0.22738394 -0.13955432 0.049373787 0.20329627 0.32829732 0.05516694 0.31693265 0.30651104 0.082196586 0.3082386 -0.25861666 0.2820815 -0.4107141 -0.49784756 0.04391961 0.0059359004 0.08078577 -0.075637095 -0.14538565 -0.4710815 -0.17109929 0.126944 -0.45562035 -0.1719006 0.0118351765 0.20186171 -0.49488953 -0.25687778 0.32403493 -0.07686958 -0.019296538 0.044225838 0.06652787 -0.207373 0.031839333 0.4488096 0.27451044 0.4260687 -0.30404496 0.093608074 0.3319398 0.015461081 0.42301956 0.4702799 -0.029384086 -0.1384858 0.0026967898 -0.014079079 -0.3281478 0.0008103858 -0.042762347 -0.22404459 0.0044800816 -0.075757205 -0.12367924
mother 0.47311985 -0.2091023 0.017038131 -0.04911702 -0.1216818 0.07476354 0.18506655 -0.53038675 -0.017213488 -0.015287054 -0.25208494 0.19962068 0.0772302 0.17654197 -0.14825746 0.53380114 0.122961216 0.12693065 -0.18428965 -0.013205421 0.33397198 -0.037577376 0.16000122 0.07019513 -0.23377658 0.3474188 0.116486266 0.5068748 0.17344075 -0.25565866 0.051603135 0.04083506 -0.14063467 -0.22757289 -0.5026658 0.03120172 0.1997064 0.4976913 0.25941136 0.0995996 -0.16889006 -0.22162229 -0.20337376 -0.6508436 -0.065573 -0.15211204 0.06319012 0.10399001 0.29689062 0.29879266 0.16612922 0.45883882 0.31741247 0.027849818 0.30806452 -0.31677696 0.26937246 -0.34202334 -0.6101734 -0.07572148 0.08514339 0.00023303706 -0.07479184 -0.14006075 -0.18609084 0.014374209 0.22688733 -0.2838797 -0.14530276 -0.002392371 0.06486881 -0.31453964 -0.16752577 0.2949098 0.02726846 -0.10465454 0.04102413 0.090669475 -0.23805125 0.097172886 0.46369097 0.15150231 0.4473848 -0.46279323 0.15203556 0.32115945 0.14755407 0.40667936 0.51013315 0.007669514 -0.02345996 0.067947134 -0.04047454 -0.20115623 -0.032673284 0.005625674 0.0393227 0.0098003335 -0.009847239 -0.1221596
drying 0.38159546 -0.161738 -0.00028356543 -0.124771684 -0.12543926 0.07545422 0.18784389 -0.40134713 -0.010275547 0.05284444 -0.21639572 0.1322924 0.09212679 0.1643571 -0.08477477 0.4904036 0.12589258 0.122428775 -0.11266246 -0.06648605 0.27889547 -0.020187363 0.12504669 0.11205618 -0.20288877 0.2939578 0.12871072 0.45534238 0.12009265 -0.22168142 0.07605548 0.0428464 -0.1502086 -0.23043288 -0.4645743 0.037118375 0.15527567 0.4868936 0.2010374 0.0390972 -0.116010845 -0.22178167 -0.22218686 -0.5893983 -0.09516567 -0.1169788 0.119466074 0.09029175 0.29222387 0.2690639 0.17672618 0.42677763 0.2841588 0.017873092 0.27211338 -0.2795361 0.23185818 -0.29358295 -0.57737136 -0.11515535 0.11017413 -0.011078002 -0.09224626 -0.12396236 -0.060314626 0.045102324 0.21634424 -0.21101251 -0.095660985 -0.013056868 0.022889726 -0.23295154 -0.13985395 0.24016014 0.043806415 -0.13444763 0.033327058 0.112995006 -0.2360952 0.12238061 0.44173524 0.104072236 0.39237237 -0.4464916 0.15967707 0.30341104 0.17992955 0.3554814 0.47142676 0.026427837 0.039734628 0.084546946 -0.06487005 -0.15036063 -0.06159718 0.025325416 0.11158525 0.018137174 -0.0040415186 -0.10051452
his 0.62245697 -0.3472912 0.12821081 0.18217821 -0.1466658 -0.0068401457 0.045421246 -0.8318734 -0.026022598 -0.25009757 -0.35504568 0.38001153 0.05120192 0.26379797 -0.35988835 0.5468467 0.08530519 0.09071875 -0.35087734 0.13521437 0.48987162 -0.028948054 0.22127922 -0.09895849 -0.33143693 0.42598632 -0.06358779 0.532733 0.32702622 -0.25580722 -0.114142664 0.07331398 -0.051188007 -0.17469205 -0.5277044 -0.10663106 0.25163206 0.4180314 0.36023206 0.17139909 -0.3916967 -0.0964188 -0.017066758 -0.7478014 0.17350106 -0.27805066 -0.19675627 0.06383529 0.23249422 0.3974538 0.026910078 0.35712132 0.35132423 0.09418285 0.382317 -0.31093132 0.33064544 -0.48585236 -0.5596359 0.0762794 -0.011553716 0.11570522 -0.08319344 -0.18404745 -0.591615 -0.20982358 0.1324145 -0.530478 -0.205552 0.020504843 0.25492984 -0.6109712 -0.32625794 0.39644948 -0.11343383 -0.019445984 0.04119723 0.07490605 -0.22602227 0.017620213 0.5388935 0.32552633 0.47647232 -0.3554039 0.10288787 0.38130733 0.009559028 0.51071274 0.5448798 -0.032199472 -0.17969456 -0.0038736574 0.0014395228 -0.3840984 0.014127548 -0.04410649 -0.2809233 0.00838539 -0.098846234 -0.13773844
theres 0.59032345 -0.18177782 -0.033328738 -0.0053901942 -0.13194954 0.14002815 0.25344872 -0.56382674 -0.023428455 0.0365222 -0.20584331 0.21264616 0.1256055 0.09329357 -0.19882716 0.5247638 0.13206093 0.13042675 -0.22008696 0.005043897 0.34215355 -0.010795293 0.19565323 0.14798711 -0.2170518 0.36939856 0.14451051 0.52383715 0.13339235 -0.31214225 0.13397181 0.05057353 -0.17535667 -0.27368322 -0.51070756 0.086626254 0.22686933 0.53784096 0.3536587 0.18823421 -0.19204523 -0.29529876 -0.19103487 -0.6453305 -0.104223125 -0.18614864 0.08774946 0.09070878 0.34713423 0.25947982 0.20425667 0.51026905 0.43217382 -0.0074103954 0.2922106 -0.36081654 0.27977583 -0.30267698 -0.64000183 -0.06489527 0.12246675 -0.008946244 -0.03132683 -0.06209449 -0.21576467 0.12861633 0.28601074 -0.24456841 -0.24583732 -0.004542703 0.059561793 -0.29546103 -0.15054244 0.26500612 0.048330747 -0.12543489 0.023276929 0.019019622 -0.22011453 0.11956066 0.4263445 0.16185656 0.48028153 -0.51857495 0.17589457 0.32073736 0.15510935 0.4172384 0.47492754 -0.05041663 0.010232215 0.088487685 -0.040929236 -0.16658686 -0.034437094 -0.016141955 0.053387735 0.0043268637 -0.018490024 -0.16141726
for 0.4716921 -0.32090008 0.121820934 0.13206132 -0.13450684 -0.042581286 -6.541062e-05 -0.7019524 -0.0018263796 -0.2154686 -0.30980992 0.34719884 0.065638475 0.25237173 -0.30028355 0.45691302 0.075492695 0.069493 -0.28887284 0.11509615 0.43588454 -0.02836054 0.21409935 -0.12879111 -0.31153175 0.34019548 -0.08568252 0.46344253 0.2849166 -0.19792981 -0.12730148 0.054935344 -0.029656129 -0.14067765 -0.4541571 -0.14342648 0.19542658 0.34655583 0.2792306 0.09444411 -0.34887183 -0.04621975 -0.033838034 -0.63491476 0.15891086 -0.23626716 -0.1835039 0.04361216 0.18375239 0.3426969 0.03132139 0.29372722 0.26894534 0.10040213 0.31775424 -0.23589234 0.2958497 -0.44008148 -0.4750765 0.06741146 -0.0057390016 0.086947486 -0.08478746 -0.15697019 -0.5072113 -0.22537784 0.09757713 -0.4998036 -0.15746664 0.013456186 0.2287482 -0.5301966 -0.29991177 0.34858835 -0.10147915 -0.004742642 0.043835174 0.077876434 -0.21732107 0.03299952 0.457323 0.28505796 0.40966323 -0.27650517 0.094665796 0.33456817 -0.0017973556 0.4239415 0.48810142 -0.018817823 -0.15735652 -0.025717845 -0.0062821927 -0.36209863 -0.0052236062 -0.03616905 -0.27614814 0.02693757 -0.09681214 -0.10074693
out 0.5557525 -0.19303808 -0.0013071164 -0.009054665 -0.12933354 0.10872436 0.22599782 -0.56162566 -0.016375273 0.0011413937 -0.24187751 0.21623518 0.09258495 0.12778473 -0.19220567 0.5165741 0.10741856 0.1301335 -0.22531554 0.014340604 0.34929594 -0.02405815 0.17626937 0.10773228 -0.22332865 0.35923582 0.12779295 0.5018438 0.1609993 -0.29910812 0.09674246 0.05399997 -0.16585998 -0.24325255 -0.49939367 0.057196885 0.22099903 0.50471556 0.31081066 0.1737961 -0.17625709 -0.25153396 -0.18389563 -0.6249754 -0.0703598 -0.17656709 0.062051907 0.11598547 0.31340322 0.28129327 0.20069884 0.47451124 0.35943246 0.008810313 0.304507 -0.34278643 0.26656526 -0.327108 -0.6096604 -0.07312648 0.09143933 0.002664491 -0.05723377 -0.08903607 -0.22030525 0.06584372 0.25994453 -0.24355622 -0.20086 0.01091754 0.07809998 -0.32142204 -0.15963686 0.28860307 0.049437255 -0.10257623 0.034967747 0.028351009 -0.22610211 0.074755065 0.44320253 0.16589661 0.45392066 -0.4874271 0.15739664 0.33429575 0.14384727 0.4086498 0.47995108 -0.021790251 -0.017259693 0.07021108 -0.04120765 -0.19072497 -0.015366385 -0.007859836 0.03210085 0.009636875 -0.018165113 -0.14375971
floor 0.38785517 -0.16137198 -0.0310377 -0.107579045 -0.114278585 0.08413449 0.19763377 -0.39550516 -0.01998043 0.051965803 -0.20656118 0.1404283 0.07391815 0.13425155 -0.08944286 0.49405736 0.103642195 0.14211792 -0.132532 -0.055271387 0.27758473 -0.029933201 0.12231364 0.13063756 -0.18843588 0.29913783 0.15951134 0.44385216 0.10119944 -0.24466312 0.091145486 0.034082755 -0.1641305 -0.2184658 -0.45782074 0.061594177 0.1659692 0.47906196 0.21544546 0.07932489 -0.115334205 -0.24302581 -0.23813632 -0.56794506 -0.13095523 -0.123123705 0.12568232 0.10770957 0.3030455 0.25163263 0.18045601 0.43173814 0.27988324 -0.010330692 0.27458832 -0.29796255 0.22641566 -0.28910324 -0.59860694 -0.10537414 0.10176715 -0.03157271 -0.06512458 -0.123105854 -0.04931817 0.07414118 0.23804942 -0.18320684 -0.1035826 0.0121150315 0.0043962314 -0.20991562 -0.1254554 0.25996226 0.064371176 -0.115543544 0.038646467 0.07920387 -0.23743717 0.10258461 0.42698538 0.10413867 0.40913647 -0.45540828 0.16272089 0.27341896 0.19087203 0.35021508 0.45908034 0.016483663 0.021011703 0.07962081 -0.04477375 -0.14847136 -0.058908246 0.017868705 0.12615274 0.0023962522 0.020897258 -0.09661851
you 0.8352557 -0.09755684 -0.0645023 -0.005504571 -0.15197521 0.23592812 0.3918253 -0.653746 -0.06127677 0.07941719 -0.19952466 0.21426229 0.1026337 0.04041719 -0.25702357 0.64796376 0.113547795 0.16393209 -0.32326004 0.0008514854 0.37405896 -0.016435454 0.18036674 0.25369868 -0.21204147 0.4862474 0.2936623 0.5689837 0.13229543 -0.4617085 0.26658636 0.052068997 -0.2655272 -0.31411067 -0.59509623 0.22510439 0.32887825 0.6279584 0.48652977 0.38285294 -0.15719055 -0.39247295 -0.2165264 -0.69181013 -0.20210457 -0.17488135 0.16760871 0.15402216 0.4425181 0.21626699 0.31700355 0.72573715 0.49195424 -0.024397112 0.32793266 -0.5197186 0.3016598 -0.27237135 -0.78397644 -0.10802305 0.13149476 -0.013077249 0.008299341 -0.01600455 -0.24179527 0.3374068 0.4742515 -0.15329257 -0.41377774 0.01038608 0.032778017 -0.28410983 -0.10997011 0.2713275 0.13883483 -0.12884952 0.041268013 -0.09412731 -0.2111887 0.053511903 0.45200667 0.12854646 0.58081365 -0.6869983 0.20138936 0.36045742 0.225002 0.487471 0.525295 -0.13609244 0.013972454 0.13461216 -0.030792398 -0.109450586 0.040604655 -0.020125685 0.16882929 -0.034841374 0.019811535 -0.26029515
running 0.31052616 -0.17076533 -0.0091218045 -0.13952447 -0.10986187 0.06036359 0.15559167 -0.37411076 0.009340811 0.05079986 -0.23541015 0.11413925 0.088303134 0.18144406 -0.06749129 0.48501292 0.109368205 0.14056915 -0.09000806 -0.06547027 0.2733493 -0.024027565 0.10828427 0.11384854 -0.17025794 0.2684967 0.14630295 0.43972725 0.10707242 -0.2112228 0.05631263 0.053250372 -0.13474359 -0.22359674 -0.46089324 0.032948274 0.1450675 0.4770071 0.16316234 0.006859696 -0.1115238 -0.22192201 -0.24212016 -0.55825007 -0.12450695 -0.109900095 0.12704219 0.094094284 0.2799089 0.27126795 0.17254688 0.40618172 0.2336877 0.009540794 0.26889786 -0.26285884 0.2335022 -0.30328533 -0.58766294 -0.112088054 0.10193076 -0.03739653 -0.096475005 -0.14848258 -0.0050519425 0.0363091 0.19729735 -0.18883215 -0.045896415 -0.002131728 0.00936612 -0.19931589 -0.13383047 0.26083034 0.048472676 -0.122180834 0.02866987 0.12699364 -0.24749206 0.1141222 0.4451213 0.09742601 0.3702556 -0.4413683 0.1601329 0.2704145 0.19526912 0.3438288 0.46036685 0.06248763 0.02882453 0.07231552 -0.053232457 -0.14317444 -0.07185289 0.043771323 0.12297927 0.02857182 0.015297271 -0.06266701
has 0.5263482 -0.23594269 0.041564457 0.06942901 -0.11565227 0.031124113 0.12955867 -0.61591357 -0.033962823 -0.110859275 -0.26193297 0.26372817 0.07764987 0.16825977 -0.24760173 0.45757693 0.10466117 0.08435737 -0.24596404 0.064506814 0.35222957 -0.0363248 0.18939786 -0.027290968 -0.25146776 0.32727015 0.016572952 0.47456 0.20288113 -0.24214979 -0.002040369 0.04849766 -0.082865566 -0.18737946 -0.4536059 -0.025406087 0.20373304 0.3962258 0.3013909 0.13963446 -0.2585794 -0.1409807 -0.08097126 -0.6171668 0.04348934 -0.18791716 -0.052801706 0.05768668 0.2524851 0.29411766 0.08840672 0.36469957 0.34695214 0.04342959 0.30705336 -0.2698399 0.26535586 -0.3671357 -0.51682436 0.011577766 0.037804734 0.06522095 -0.062353782 -0.109298065 -0.3755147 -0.07358171 0.17896792 -0.3784296 -0.19030623 0.008471642 0.14306222 -0.4164195 -0.1966064 0.28533593 -0.022269817 -0.065384224 0.03348856 0.047390066 -0.17618608 0.052656576 0.41888857 0.21151565 0.41792637 -0.37138966 0.11719464 0.30286533 0.064428985 0.40201598 0.43504193 -0.044864345 -0.073081315 0.0266742 -0.014997857 -0.2735876 -0.0048903907 -0.02772856 -0.12562299 -0.008283953 -0.056569505 -0.13698961
are 0.6839869 -0.19163719 -0.056918837 -0.027068764 -0.1525846 0.17807314 0.33158553 -0.6341782 -0.039526742 0.046574835 -0.2383115 0.23277678 0.12306337 0.10731187 -0.22490968 0.60746634 0.15021202 0.14884022 -0.25736153 -0.003052629 0.37698287 -0.026862452 0.20870471 0.17233048 -0.2437404 0.4270972 0.18933752 0.5853227 0.1366816 -0.38675287 0.18362392 0.06469775 -0.21491706 -0.2976942 -0.5875305 0.122727074 0.26151994 0.62332934 0.405086 0.23579928 -0.201474 -0.35118523 -0.23068808 -0.73856115 -0.15190095 -0.20162226 0.120713994 0.11773081 0.40172482 0.28052256 0.2531134 0.6054339 0.49075976 -0.015847847 0.34598732 -0.43086278 0.32060823 -0.33965087 -0.75021327 -0.09910956 0.13264608 -0.00518216 -0.022377629 -0.06992125 -0.22989614 0.1830758 0.35043594 -0.24511828 -0.29186985 0.0038483918 0.052216448 -0.31728378 -0.1548713 0.29305133 0.0691341 -0.1381426 0.02986798 0.009943464 -0.25512254 0.12221963 0.4804272 0.16901067 0.5576479 -0.62230563 0.20200384 0.38003242 0.19957824 0.48123282 0.54805464 -0.057332024 0.013967408 0.1143503 -0.049131803 -0.18970726 -0.028279306 -0.019790616 0.09393125 -0.014495105 0.0026617188 -0.2005535
window 0.569532 -0.14342766 -0.068481356 -0.059247583 -0.118429214 0.16370898 0.31214583 -0.50017416 -0.03616016 0.08904873 -0.19401401 0.17288281 0.09768664 0.072536714 -0.15335204 0.516312 0.13944483 0.13521758 -0.2097265 -0.020970514 0.30572674 -0.014794738 0.17992535 0.18532185 -0.19539408 0.3640907 0.20054568 0.50034857 0.08737155 -0.32325745 0.1744385 0.03934443 -0.19845782 -0.2848842 -0.4962136 0.1375613 0.21848653 0.55824935 0.32462096 0.18195948 -0.111585595 -0.32998776 -0.24314009 -0.6103975 -0.17557777 -0.14472456 0.14173752 0.12153742 0.36599663 0.23307662 0.24677005 0.55153936 0.40335166 -0.02599139 0.29133952 -0.3777189 0.2561856 -0.268152 -0.6489371 -0.11690035 0.11802353 -0.025215428 -0.020225232 -0.053953353 -0.12427257 0.189687 0.31684956 -0.15799278 -0.2461702 0.018683752 0.025762198 -0.22573394 -0.10223403 0.25356582 0.10204669 -0.13046184 0.023494765 0.009183746 -0.22356361 0.11468404 0.40559542 0.10568358 0.4689957 -0.55027837 0.17957892 0.3115061 0.19177239 0.39238945 0.47288045 -0.04756322 0.0445765 0.106314614 -0.050543256 -0.11744022 -0.028115554 -0.0046285153 0.14377339 -0.0006927919 0.01686654 -0.1560226
well 0.53680784 -0.1951577 0.010773708 0.022412114 -0.12722048 0.0802822 0.18432716 -0.5793123 -0.016857382 -0.04530932 -0.22540866 0.23366784 0.078163624 0.13621745 -0.22532168 0.50082123 0.08597631 0.11115206 -0.23195007 0.032500807 0.3528357 -0.021681653 0.16835973 0.07480339 -0.22515123 0.35644102 0.10149091 0.47060668 0.17251395 -0.28019473 0.05771905 0.05447229 -0.13585944 -0.21505374 -0.47422907 0.03858707 0.23157442 0.46158087 0.32051748 0.18214908 -0.21167317 -0.19894823 -0.14422326 -0.6062478 -0.03692791 -0.17577967 0.015517425 0.093136065 0.28942 0.2652898 0.15449387 0.44851515 0.3389104 0.013361796 0.29252627 -0.3228342 0.26198658 -0.32303572 -0.575971 -0.037643097 0.0638944 0.017617919 -0.043106697 -0.09232597 -0.28263056 0.030049082 0.24534564 -0.2825606 -0.21674812 0.003845483 0.0957057 -0.33990064 -0.17731124 0.29001766 0.019909168 -0.073818594 0.041562542 0.01939239 -0.20953096 0.061626 0.42867708 0.1846621 0.43565208 -0.43848756 0.13386744 0.30894285 0.11326991 0.40212643 0.46759152 -0.04403351 -0.049498416 0.058992807 -0.01940201 -0.2065835 -0.005542734 -0.024559248 -0.021000978 0.0024023259 -0.018125212 -0.1471414
off 0.47572684 -0.2957929 0.08869019 0.0855021 -0.11829384 -0.016505796 0.034667898 -0.66599965 -0.001722636 -0.17603578 -0.30789506 0.31138048 0.061892148 0.23924662 -0.27364925 0.51290786 0.080785826 0.10401557 -0.24636687 0.085184515 0.44431034 -0.015307146 0.17590228 -0.038918838 -0.27478927 0.35356453 -0.012883098 0.47915387 0.26723373 -0.2119873 -0.07966693 0.08214004 -0.06888971 -0.18304259 -0.4862514 -0.07659368 0.22993135 0.4131048 0.2789587 0.1168429 -0.31724873 -0.11542627 -0.094243646 -0.65094614 0.09632671 -0.24159576 -0.11291838 0.07625173 0.22945069 0.3417543 0.06752502 0.3254082 0.27751485 0.06552339 0.33679622 -0.27831095 0.31178102 -0.42520234 -0.547355 0.036568247 0.020306531 0.05741094 -0.073666066 -0.17770267 -0.4118 -0.15986128 0.12383417 -0.42185307 -0.12612401 0.022915766 0.18727621 -0.4762353 -0.2761494 0.36140788 -0.087923184 -0.03454582 0.04617366 0.081666216 -0.24518166 0.038029473 0.49545082 0.26806623 0.4116444 -0.34287208 0.09430621 0.33126387 0.046661284 0.44732153 0.50652015 -0.0065072463 -0.14238943 0.004126041 -0.00019885995 -0.31788215 -0.037784982 -0.025731457 -0.17681696 0.034128785 -0.074992836 -0.08760653
or 0.69746363 -0.1726994 -0.03167501 0.024326438 -0.1320858 0.15473484 0.30046368 -0.6372794 -0.041782632 0.011113335 -0.22230229 0.2379269 0.10037586 0.096971795 -0.22745383 0.575298 0.11151404 0.121596776 -0.27666545 0.014631608 0.3683359 -0.029212348 0.17876285 0.14891875 -0.23780747 0.4293324 0.17432295 0.5336848 0.16109875 -0.36802104 0.1467162 0.045805365 -0.19880573 -0.2667816 -0.5408172 0.11897092 0.2682864 0.5623418 0.40764815 0.26395658 -0.17664234 -0.29138467 -0.18190205 -0.6762985 -0.10746371 -0.18128787 0.07748449 0.12424069 0.3578891 0.2688547 0.22945328 0.58270115 0.43712595 -7.384305e-05 0.31587255 -0.40604064 0.2869998 -0.32017833 -0.66930383 -0.07758139 0.090948865 0.0009286258 -0.023584675 -0.06455292 -0.27811882 0.15758343 0.35383737 -0.24548854 -0.30515772 0.0003064552 0.06897489 -0.3323193 -0.1442375 0.28885415 0.06788386 -0.12067575 0.034402512 -0.01917771 -0.21478656 0.072932065 0.45120698 0.16475786 0.52346367 -0.5726039 0.1673713 0.35356542 0.16887219 0.45561326 0.512543 -0.08184348 -0.01683896 0.09260974 -0.033432107 -0.17652416 0.01781318 -0.025684116 0.05875355 -0.016388157 -0.0063040955 -0.19999236
all 0.5421242 -0.070740215 -0.05898935 -0.029549185 -0.108764715 0.18152773 0.29688808 -0.41528016 -0.040187962 0.071355626 -0.14380307 0.12845118 0.06689868 0.026071452 -0.15483302 0.47005957 0.083058015 0.12184049 -0.20185022 -0.03448427 0.25190967 -0.0072807265 0.11573056 0.1991145 -0.13193786 0.34793046 0.24182482 0.40028912 0.07097205 -0.32487032 0.20404139 0.023827652 -0.20033276 -0.22278519 -0.4251594 0.182111 0.22213411 0.47409388 0.3210947 0.24919523 -0.084366485 -0.28275767 -0.1837564 -0.5011065 -0.19328478 -0.10838865 0.1511371 0.13355528 0.32152095 0.15999831 0.23391978 0.5193783 0.3392161 -0.041245293 0.23845956 -0.36102167 0.20129776 -0.1964054 -0.56828004 -0.089642815 0.090695255 -0.03724686 -0.005327532 -0.033471763 -0.091586515 0.24791148 0.35080323 -0.07334013 -0.265016 0.005694692 -0.0012757274 -0.17178625 -0.054814953 0.19729656 0.12538998 -0.110431686 0.020235393 -0.06654531 -0.1610113 0.044628356 0.34025356 0.07240069 0.41299197 -0.5135732 0.14950593 0.26263827 0.18184094 0.32752797 0.3845282 -0.07238345 0.029089777 0.09846473 -0.037804257 -0.07628208 0.015074514 -0.006123982 0.16255613 -0.029554088 0.04132368 -0.17677762
its 0.60258365 -0.18389069 -0.026048264 -0.014119931 -0.13611741 0.1287706 0.24741036 -0.5885211 -0.033618957 -0.0009107128 -0.23539242 0.21941496 0.09519852 0.12925678 -0.19392714 0.55609334 0.11459234 0.13122557 -0.23526534 0.0084984815 0.3630831 -0.029000454 0.1765479 0.13923833 -0.2282029 0.39310557 0.15503578 0.5237717 0.15900008 -0.33170295 0.11825531 0.05084889 -0.17050046 -0.2566102 -0.53137124 0.08944278 0.24589789 0.5503979 0.34875897 0.20135346 -0.17611508 -0.2765973 -0.19698507 -0.6612212 -0.10343461 -0.17859589 0.080495164 0.11876882 0.3367444 0.28157452 0.211698 0.51917267 0.39392248 -0.003260946 0.31456557 -0.37228194 0.2817381 -0.3287823 -0.65234935 -0.06873551 0.09297956 -0.002541474 -0.050987586 -0.10172647 -0.22063056 0.10114195 0.3034055 -0.25807706 -0.2327444 0.006744584 0.063766114 -0.31102505 -0.15527901 0.29955664 0.05157592 -0.10698917 0.03061245 0.02217851 -0.2237708 0.07981792 0.46753177 0.16550168 0.49465713 -0.5364485 0.16490729 0.33241087 0.1643695 0.43455786 0.5094664 -0.046569046 -0.010720531 0.08715602 -0.030765537 -0.17681997 -0.01606737 -0.017633954 0.05953946 -0.005872626 -0.011075306 -0.16368227
what 0.7139885 -0.045769062 -0.07686521 -0.006729533 -0.11571476 0.20622708 0.3688727 -0.53018636 -0.060209803 0.09669084 -0.13164164 0.17603844 0.08361315 0.0057138386 -0.21663466 0.52983665 0.08116025 0.1451796 -0.26467425 -0.011299981 0.28791097 -0.013714725 0.12782942 0.22933313 -0.16960119 0.422658 0.28669968 0.43390802 0.098965056 -0.40632206 0.25991836 0.022770582 -0.23755509 -0.25918064 -0.49361485 0.23271766 0.29584283 0.51951236 0.4290623 0.35916156 -0.079882696 -0.3416667 -0.18271627 -0.5651627 -0.19469266 -0.121654175 0.16667469 0.14956148 0.3588291 0.14393544 0.30293986 0.6365519 0.42076448 -0.031699404 0.25062928 -0.43449152 0.22800393 -0.20939846 -0.6506172 -0.11509561 0.11729149 -0.028809177 0.029756067 0.008383711 -0.18098618 0.34261784 0.43845078 -0.09148931 -0.37386298 -0.0074276896 -0.0030413745 -0.22555563 -0.05574433 0.19580624 0.1542282 -0.10413663 0.034214053 -0.11080558 -0.15222491 0.034482993 0.34034705 0.0920691 0.4810937 -0.5945644 0.17865564 0.3092373 0.2040413 0.39610434 0.42333087 -0.11858476 0.03028114 0.11448377 -0.029640209 -0.05895975 0.052210778 -0.025086137 0.17725351 -0.052643295 0.035809103 -0.23299313
dont 0.7339223 -0.041056342 -0.09096584 -0.004764969 -0.12106334 0.22405612 0.40152356 -0.5063928 -0.06647186 0.1131888 -0.12333147 0.1686743 0.094423525 -0.027445136 -0.21941218 0.49862573 0.06470252 0.13564666 -0.26075143 -0.012939035 0.2767309 -0.029912742 0.13325529 0.24460734 -0.1487335 0.4134303 0.3056679 0.40298977 0.080076344 -0.43625984 0.28314647 0.028776227 -0.23986565 -0.24328049 -0.47449678 0.25442937 0.2918547 0.51457924 0.4410088 0.38621622 -0.06450815 -0.3441442 -0.15701087 -0.54510033 -0.22387314 -0.09931602 0.18879168 0.1401477 0.3451528 0.11421746 0.32084557 0.6352821 0.42085046 -0.045079228 0.24138874 -0.4316026 0.20065406 -0.16343136 -0.62411594 -0.12425777 0.11558838 -0.034796044 0.047885604 0.026448697 -0.15346985 0.37444255 0.43915647 -0.042912856 -0.3902861 -0.0032973816 -0.0008307346 -0.20710346 -0.040563356 0.17560254 0.18482491 -0.09602259 0.04824171 -0.1300556 -0.11839159 0.012053333 0.29542372 0.070411354 0.4848407 -0.59005094 0.18844412 0.30390313 0.21203414 0.3785731 0.37919736 -0.14423525 0.046773747 0.13269989 -0.02707256 -0.060584348 0.06304218 -0.024152413 0.18623653 -0.06372899 0.05025648 -0.26177338
hand 0.46128422 -0.25647125 0.103101 0.13560186 -0.09361282 -0.030323789 0.025941305 -0.6177304 -0.023400338 -0.18201183 -0.26713133 0.29514667 0.05061273 0.20472589 -0.25918436 0.36336327 0.07372962 0.042881694 -0.24875161 0.102574654 0.3515796 -0.037435953 0.18863848 -0.12911698 -0.26578397 0.29129827 -0.07537228 0.4080437 0.22855645 -0.17705216 -0.09541448 0.052800685 -0.0015096227 -0.11752828 -0.37991875 -0.113451794 0.1721432 0.28369677 0.24181539 0.11540879 -0.29636514 -0.03871744 0.012386676 -0.555556 0.1405292 -0.19146574 -0.14497367 0.024106191 0.16554664 0.29625267 0.0099671455 0.25091505 0.27405456 0.09166954 0.27122083 -0.21261685 0.2334999 -0.3661505 -0.38646963 0.068067804 -0.012568351 0.10516594 -0.07731925 -0.13230452 -0.4611165 -0.1864949 0.08730434 -0.4314457 -0.16736753 0.007312172 0.20462939 -0.4645378 -0.22894806 0.2738763 -0.076265484 -0.015192199 0.045860376 0.07021411 -0.1440464 0.016186101 0.3802674 0.25166684 0.3553533 -0.2501878 0.08146771 0.27423108 0.002177386 0.35231405 0.38400894 -0.04381074 -0.11981245 -0.016357549 -0.010312486 -0.31725526 0.012259986 -0.04152457 -0.23815507 -0.0011488028 -0.07673035 -0.11232774
falling 0.34722722 -0.2947454 0.10926309 0.088909745 -0.110465646 -0.059237484 -0.036862392 -0.5758018 0.013007461 -0.19897185 -0.28324398 0.28419337 0.049312253 0.24279383 -0.23893572 0.42171997 0.05972047 0.08450369 -0.20486489 0.10093514 0.39187637 -0.019204032 0.15621974 -0.09461445 -0.24978997 0.27803284 -0.07790151 0.40768737 0.25637156 -0.13617073 -0.13355507 0.071263574 -0.03273494 -0.13023286 -0.4001501 -0.14008021 0.1806049 0.30208325 0.21038237 0.05012751 -0.30671448 -0.032698605 -0.053424224 -0.5470336 0.14486331 -0.20717268 -0.1560934 0.03241993 0.16574286 0.3226615 -0.006369537 0.22564833 0.19618846 0.06329054 0.2971727 -0.18357442 0.26338235 -0.39855242 -0.4393439 0.06753586 -0.0066691856 0.04785329 -0.09171994 -0.19144802 -0.388608 -0.2343751 0.043153927 -0.42777345 -0.058064956 0.008190933 0.18704444 -0.44435465 -0.26420772 0.32830396 -0.11516588 -0.003477478 0.029345168 0.09613165 -0.22201768 0.037902225 0.43393403 0.2528296 0.32161337 -0.22003296 0.06757015 0.27736264 0.00022039909 0.37269738 0.44270074 0.0155858835 -0.16372459 -0.020363713 0.0031051196 -0.3216158 -0.038149957 -0.016240109 -0.22414309 0.032032955 -0.07861406 -0.04458604
this 0.630726 -0.16262905 -0.012525871 0.03653406 -0.12927161 0.13849649 0.25151744 -0.6058848 -0.03881163 0.0005283969 -0.20152089 0.22484764 0.08475775 0.08763355 -0.23645858 0.53310764 0.09391915 0.1303788 -0.25894064 0.020430882 0.34747988 -0.018736698 0.16024879 0.1300871 -0.21435952 0.3893098 0.15712485 0.48614967 0.15731776 -0.33217344 0.12283973 0.036020957 -0.16971049 -0.24083702 -0.5004163 0.097692706 0.25805092 0.5018409 0.3748004 0.2630558 -0.19016239 -0.2525385 -0.15212378 -0.6220521 -0.08330198 -0.1792883 0.052578826 0.10538102 0.32085514 0.24179074 0.19773518 0.51877093 0.39135116 -0.009110091 0.29867032 -0.37583044 0.25062865 -0.3060028 -0.60372543 -0.043184917 0.07537696 0.011286533 -0.021784011 -0.06811204 -0.2842317 0.12343686 0.32703373 -0.24852747 -0.2891376 -0.0031820175 0.073986374 -0.3243681 -0.14358178 0.27189872 0.053787738 -0.08939302 0.039075293 -0.023572827 -0.18418297 0.05661703 0.41711828 0.16583347 0.47400486 -0.49950606 0.15595637 0.3147094 0.1445401 0.41440272 0.46606869 -0.07411425 -0.025928248 0.06829374 -0.03369582 -0.17709826 0.0030260638 -0.033668213 0.024247205 -0.01741824 -0.008141634 -0.19192638
be 0.7520878 -0.1802333 -0.034650087 0.027914347 -0.15464388 0.15536644 0.31868997 -0.698436 -0.047721826 0.0016539403 -0.23475754 0.24969982 0.08348966 0.10889398 -0.2408232 0.60829693 0.13139533 0.1312168 -0.29102865 0.03136815 0.40086904 -0.051440608 0.18205236 0.1436609 -0.26407942 0.47354713 0.1887078 0.5758188 0.18111253 -0.39721408 0.15068048 0.045535237 -0.1987971 -0.28161883 -0.5698224 0.13263161 0.29686338 0.5972445 0.4376055 0.2951018 -0.18923764 -0.31704825 -0.18956932 -0.7241867 -0.10251883 -0.19980653 0.069521576 0.13797334 0.38045102 0.29800138 0.24743575 0.6055912 0.47211596 -0.008474654 0.35197937 -0.44377205 0.30687243 -0.35304877 -0.7202545 -0.07610879 0.077331 0.020054776 -0.033042405 -0.08100003 -0.30417785 0.15776177 0.38040808 -0.274487 -0.32277834 -0.00031219784 0.08042613 -0.3678878 -0.14593151 0.3077205 0.077920005 -0.1184632 0.041470744 -0.01441585 -0.23326854 0.07091391 0.4755828 0.1788696 0.5645877 -0.5979301 0.17095096 0.38695148 0.17305025 0.4902975 0.5499108 -0.08548695 -0.03180809 0.10045298 -0.04745877 -0.18286899 0.021950148 -0.01837989 0.055189062 -0.03728005 -0.013698289 -0.21028839
reaching 0.366525 -0.2942706 0.14043446 0.14280955 -0.10756751 -0.059933048 -0.041913968 -0.62474805 0.0038851448 -0.22172858 -0.27759036 0.32506555 0.054734748 0.22016612 -0.27423 0.37086543 0.057256926 0.05846572 -0.24262024 0.12196608 0.376769 -0.026383761 0.1899494 -0.14476247 -0.26119617 0.26958147 -0.11922679 0.39155093 0.27108335 -0.15757433 -0.15645556 0.05013906 0.008318092 -0.09876238 -0.3782062 -0.16768786 0.15876548 0.25037432 0.22527505 0.057535604 -0.3291131 -0.0050012334 0.011997476 -0.52573276 0.16574672 -0.22135189 -0.19910909 0.028032763 0.1264571 0.3115693 -0.008625299 0.18596585 0.22020945 0.10221178 0.26850653 -0.16593553 0.23951347 -0.37898964 -0.37186214 0.07971609 -0.029475566 0.09460593 -0.082362756 -0.14830834 -0.481493 -0.2489772 0.034052175 -0.45483 -0.10355701 0.010327718 0.22067288 -0.49325132 -0.27044305 0.31129566 -0.11528682 0.019436132 0.04159899 0.0780835 -0.18140589 0.005340458 0.38392508 0.27433658 0.32514936 -0.18701448 0.062612824 0.2857498 -0.027482782 0.36959603 0.4051301 -0.015089193 -0.16383336 -0.043609243 -0.002785452 -0.33700174 -0.015847951 -0.024665741 -0.2928829 0.025484104 -0.09842905 -0.056755695
one 0.57358193 -0.26805532 0.064209476 0.098170735 -0.11918068 0.034461796 0.122907005 -0.677603 -0.028068738 -0.12888269 -0.274243 0.30132204 0.06727524 0.19446854 -0.27939382 0.48904046 0.09797504 0.09577657 -0.27940932 0.08923021 0.4005733 -0.024633918 0.20129022 -0.020860864 -0.27011645 0.36377162 -0.002964908 0.49569705 0.23290427 -0.259394 -0.020725222 0.060799118 -0.07764626 -0.18794066 -0.48374513 -0.047519904 0.22593753 0.4163671 0.3241187 0.16874495 -0.3001994 -0.13937913 -0.06964882 -0.6590618 0.06919555 -0.22097069 -0.08480477 0.064863056 0.25661337 0.31006166 0.07995137 0.38963333 0.36084908 0.054112907 0.3250334 -0.2984874 0.2823663 -0.3911233 -0.5409477 0.027976487 0.03004401 0.06590652 -0.06175045 -0.13025707 -0.43348584 -0.08655986 0.18648438 -0.4004838 -0.21701357 0.0073562055 0.1745789 -0.46578774 -0.24094416 0.32146177 -0.04034007 -0.04438146 0.03477696 0.04223042 -0.1984942 0.049668714 0.45105827 0.24755257 0.44756782 -0.38405183 0.12647517 0.32946694 0.050984062 0.43745285 0.47545767 -0.051413998 -0.10482895 0.025534675 -0.010188576 -0.3021053 -0.008378152 -0.04224701 -0.16235486 -0.003864598 -0.06862333 -0.14764702
washing 0.38849822 -0.16038854 -0.0028497893 -0.10282529 -0.12146859 0.08295961 0.18467659 -0.40652627 -0.0049264845 0.039545406 -0.21340863 0.1360213 0.08017822 0.16459255 -0.08577217 0.48443818 0.122280255 0.11106557 -0.11889706 -0.057451155 0.2795208 -0.023765275 0.11813604 0.105151385 -0.20418988 0.2928287 0.12627469 0.44173348 0.13815808 -0.21659602 0.06150323 0.037290268 -0.13987586 -0.21680085 -0.45523155 0.042799182 0.15906155 0.48052296 0.2075039 0.05266481 -0.114349276 -0.22094668 -0.2232935 -0.5795071 -0.085563034 -0.11846909 0.09921974 0.09194267 0.27266902 0.27523425 0.17186822 0.4307212 0.26788297 0.024899641 0.26442167 -0.27751026 0.22849311 -0.2952366 -0.56349355 -0.10059119 0.09076007 -0.009564776 -0.08775988 -0.12331304 -0.08592242 0.042759363 0.20772433 -0.21599944 -0.1008218 -0.0039287936 0.032250468 -0.25114524 -0.13880567 0.24747464 0.034583014 -0.120039634 0.029438026 0.10819896 -0.22501011 0.10070044 0.43612254 0.10263129 0.3878011 -0.43627173 0.14845885 0.29894423 0.1638371 0.34717765 0.46949545 0.029438082 0.013628355 0.07350919 -0.055889998 -0.16010381 -0.05268943 0.02231038 0.10271232 0.022908956 -0.0072238925 -0.0924162
like 0.72826725 -0.13974884 -0.041171335 0.039369017 -0.12752149 0.15613896 0.32154208 -0.62739265 -0.05566126 0.03886567 -0.2062735 0.23255113 0.11072103 0.065854065 -0.22622614 0.54071885 0.14068525 0.13295653 -0.254415 0.014868388 0.3379059 -0.046224173 0.17668664 0.17381881 -0.23846886 0.43789673 0.17907856 0.532782 0.14757155 -0.3643285 0.17953396 0.021990482 -0.18473877 -0.26623523 -0.546718 0.13899326 0.26238737 0.56723005 0.41624844 0.2939947 -0.15850353 -0.31227672 -0.17224513 -0.67344594 -0.13071927 -0.19538039 0.1022249 0.12717518 0.3624998 0.25819045 0.24727483 0.5918827 0.45925182 -0.01713255 0.2999553 -0.40240195 0.26985773 -0.29346544 -0.66349274 -0.07137282 0.09546615 0.0074344175 -0.032753374 -0.05179906 -0.25703973 0.17671272 0.35585397 -0.22617514 -0.33939737 0.0065489425 0.07638105 -0.31762618 -0.117433175 0.2586125 0.07852777 -0.12294635 0.030290121 -0.017775884 -0.1766089 0.078723766 0.41869605 0.1443613 0.5175301 -0.56841326 0.18025427 0.32853436 0.1706136 0.44570163 0.49369833 -0.11601192 -0.0019319003 0.08936325 -0.04484413 -0.16408351 0.021329207 -0.03466746 0.06430961 -0.013995932 -0.012855976 -0.21682519
going 0.53263783 -0.1425743 -0.003963328 0.03590364 -0.10674314 0.10303314 0.20752682 -0.5160504 -0.024835614 -0.017466146 -0.18915728 0.20556392 0.06534229 0.083095685 -0.20451678 0.4661365 0.07979777 0.114678904 -0.22340786 0.01563236 0.30256298 -0.026781391 0.14280902 0.10918524 -0.185673 0.34829044 0.13882428 0.41311365 0.14682885 -0.28097785 0.10460444 0.04489178 -0.15214571 -0.1942563 -0.4321768 0.091645 0.22124468 0.42938495 0.32879868 0.2140521 -0.15766867 -0.2181931 -0.1316149 -0.5340896 -0.07711322 -0.15134934 0.045857105 0.09393467 0.27761385 0.21103504 0.17018466 0.4421348 0.32402608 -0.011051598 0.25227723 -0.31837875 0.221039 -0.26838985 -0.5398247 -0.036111265 0.06018007 0.014135211 -0.020369813 -0.07505106 -0.23426083 0.093112 0.27676278 -0.21157686 -0.24063389 0.0033206965 0.06528146 -0.28115875 -0.1283431 0.24382634 0.051427104 -0.07801717 0.035785906 -0.016546221 -0.17506844 0.038966857 0.36445963 0.14790656 0.41427982 -0.42088196 0.12136999 0.27409232 0.117787726 0.37220722 0.4147219 -0.06104451 -0.028173363 0.058468852 -0.016970271 -0.14380716 0.0034775576 -0.019171989 0.020202097 -0.009222473 -0.00036944897 -0.15645295
getting 0.43328014 -0.26499557 0.08712526 0.0749669 -0.12495531 -0.0064232647 0.03516777 -0.6125639 -0.0027446523 -0.13608252 -0.27341053 0.29167616 0.060302656 0.21200332 -0.25623772 0.45736292 0.07327994 0.09599934 -0.24158454 0.08305544 0.3876283 -0.009673468 0.17546073 -0.042801425 -0.2526791 0.30698478 -0.022846533 0.443403 0.23405513 -0.1969506 -0.058695473 0.06975866 -0.06650732 -0.16138223 -0.4451162 -0.08013563 0.19302706 0.36084902 0.25587937 0.097162776 -0.2905188 -0.09716898 -0.06946854 -0.57946277 0.07451418 -0.20825483 -0.111135446 0.051490285 0.21689586 0.30713484 0.06183744 0.30349037 0.2678858 0.052674413 0.300046 -0.24082749 0.274001 -0.38641772 -0.49104404 0.040915765 0.0154805835 0.047320195 -0.07463564 -0.14023498 -0.38430786 -0.14506891 0.117539555 -0.3901459 -0.13720708 0.008260546 0.1643554 -0.42366183 -0.24889608 0.31943196 -0.07080613 -0.03237001 0.03510623 0.06721066 -0.22091475 0.03804464 0.43611583 0.24930693 0.37883654 -0.31184286 0.09048953 0.30224192 0.0284307 0.3898899 0.45439813 -0.004743366 -0.12849101 -0.0044644396 -0.0013303886 -0.28635702 -0.01994149 -0.023842167 -0.17539698 0.025764175 -0.06360241 -0.08163123
about 0.59324396 -0.1406793 0.0005731201 0.06000688 -0.11481946 0.1252445 0.22377968 -0.5505865 -0.038045764 -0.033331525 -0.19663222 0.20771027 0.062270705 0.08562945 -0.22618549 0.49442938 0.06905271 0.10596823 -0.25546026 0.021584632 0.33875182 -0.022419885 0.14188537 0.11852036 -0.1956945 0.3740042 0.13751693 0.4236974 0.16279145 -0.3066136 0.1123014 0.04428985 -0.14923118 -0.2125836 -0.44843256 0.09990759 0.23329516 0.44955367 0.35823512 0.25772718 -0.16821823 -0.22702076 -0.12040826 -0.571398 -0.07670078 -0.16316599 0.0334973 0.110502906 0.29027373 0.2194333 0.17523006 0.4703153 0.35530746 -0.004673544 0.28420725 -0.33993593 0.24035086 -0.27439275 -0.5617589 -0.01851373 0.05543328 0.013585751 -0.015487507 -0.06343787 -0.27354154 0.10476826 0.2933888 -0.21370904 -0.26697463 0.009736764 0.073765635 -0.30817544 -0.13516584 0.25961265 0.052842367 -0.08377471 0.022979697 -0.039007165 -0.17811248 0.027789379 0.38203982 0.15631102 0.43617097 -0.44884464 0.12733679 0.29028657 0.11502475 0.39152455 0.43709192 -0.0888546 -0.048926894 0.06391318 -0.014600922 -0.16490407 0.022311067 -0.022911908 0.025171582 -0.008184538 -0.0053503457 -0.18033639
standing 0.35002464 -0.20469512 0.04734903 -5.4933244e-06 -0.09568039 0.025764637 0.087463774 -0.4539123 -0.004767307 -0.064032264 -0.21552771 0.19436352 0.060606327 0.16412523 -0.16071808 0.39473003 0.07688666 0.0967536 -0.16300036 0.017647032 0.3048024 -0.0118242465 0.13748136 0.010729341 -0.19780032 0.2596588 0.033634305 0.38340506 0.15854989 -0.17640683 -0.011998782 0.047852196 -0.07587638 -0.15895014 -0.38834658 -0.02687335 0.16020295 0.36299056 0.20787284 0.06302715 -0.20070738 -0.13539338 -0.11361698 -0.51056415 0.008252109 -0.15120456 -0.016435087 0.05209475 0.21398677 0.2546787 0.08361346 0.3051587 0.23695086 0.031348296 0.2510052 -0.22479342 0.21817476 -0.30080324 -0.45632127 -0.009171798 0.04744247 0.017102506 -0.062492926 -0.12485984 -0.21423014 -0.06839747 0.12778333 -0.27534205 -0.09624152 0.0061267475 0.091407225 -0.30848306 -0.17102039 0.24736679 -0.01756076 -0.05392451 0.024603605 0.06860641 -0.19710319 0.06340805 0.38271683 0.16344479 0.33163145 -0.3043679 0.09898815 0.2580121 0.07484852 0.33688185 0.3978956 0.005276637 -0.04852746 0.026370797 -0.015446844 -0.20181333 -0.040376946 -0.0002832019 -0.059243813 0.025135525 -0.042661965 -0.08175506
he 0.6159765 -0.29289842 0.07067482 0.11756302 -0.13462326 0.021811334 0.10603476 -0.751774 -0.01870636 -0.16559024 -0.30340862 0.3328443 0.06393021 0.20755072 -0.30828157 0.54074115 0.09201926 0.098622784 -0.3052158 0.10582128 0.4438827 -0.031213714 0.2135546 -0.031199375 -0.29237255 0.40566006 0.001462197 0.5222145 0.26521713 -0.28464758 -0.03313377 0.0691802 -0.08651354 -0.19846469 -0.51127064 -0.046507865 0.2550591 0.43618408 0.35374627 0.19388968 -0.32280797 -0.14451437 -0.072996184 -0.69609064 0.077831015 -0.24698968 -0.10927571 0.07609364 0.2727752 0.3469598 0.09464531 0.41149142 0.3534819 0.0543778 0.35523087 -0.32965025 0.31834307 -0.429743 -0.5762127 0.039665516 0.015290055 0.065473095 -0.05646551 -0.15020354 -0.48489195 -0.10865186 0.18789732 -0.44389302 -0.23522225 0.016791854 0.18667287 -0.50278425 -0.26218224 0.3557278 -0.056582984 -0.03672171 0.045924563 0.04210101 -0.21737485 0.029698981 0.48710355 0.27026832 0.47613862 -0.40784022 0.12320309 0.3563191 0.045411546 0.47806844 0.509355 -0.060574383 -0.13664165 0.018295666 -0.006915351 -0.31710866 -0.00065296754 -0.035626296 -0.18781127 0.0007943676 -0.074418314 -0.15416239
oh 0.6299265 -0.15064988 -0.013693906 0.026217379 -0.13200238 0.13466197 0.25656286 -0.5824398 -0.03818222 0.009032512 -0.19697629 0.21806939 0.08867407 0.08040169 -0.22760326 0.51836824 0.0923161 0.12307176 -0.2510751 0.017904108 0.3307631 -0.023970239 0.16619228 0.1290942 -0.21472803 0.3869845 0.16492511 0.47712606 0.14606869 -0.32921928 0.13405448 0.04042941 -0.17327449 -0.23810735 -0.4853359 0.11227215 0.2538541 0.4888117 0.37052956 0.25560266 -0.17940271 -0.2543567 -0.15243521 -0.5952359 -0.09967382 -0.16232905 0.07133786 0.11227852 0.32181442 0.22912519 0.20010412 0.5219589 0.38342255 -0.002912231 0.27921674 -0.37160006 0.24699631 -0.2815831 -0.5985578 -0.051194005 0.09129821 0.007191089 -0.019749505 -0.055223517 -0.26298147 0.14488305 0.32576588 -0.22342275 -0.2888805 0.005307949 0.070743516 -0.304956 -0.13664123 0.2579182 0.07083107 -0.0860636 0.041328974 -0.025875421 -0.18992186 0.06124735 0.4016691 0.15039402 0.47075802 -0.50373733 0.15642886 0.307465 0.13788776 0.41232333 0.45429483 -0.08366365 -0.018067885 0.08020828 -0.023361027 -0.16425091 0.0064228512 -0.030139389 0.040720865 -0.013589001 -0.011066594 -0.18614969
outof 0.41375998 -0.281745 0.07989559 0.03356305 -0.13239789 0.007393683 0.051324613 -0.6057574 0.0063754595 -0.10973165 -0.29756603 0.2729106 0.06532187 0.2316833 -0.22771199 0.48859707 0.092762955 0.11483033 -0.22439931 0.06311675 0.3955492 -0.0127994325 0.18199272 -0.022616332 -0.27516696 0.31923598 0.004383032 0.48337194 0.21989496 -0.21677107 -0.04883576 0.0641759 -0.08678287 -0.18706284 -0.46648586 -0.0731073 0.19931227 0.40282226 0.25112715 0.077153146 -0.28006312 -0.12271631 -0.120717525 -0.6246127 0.04618993 -0.21265975 -0.06572933 0.0703779 0.2464645 0.3277947 0.09555148 0.3372335 0.26552087 0.06776067 0.3116047 -0.26342714 0.2967649 -0.39608717 -0.55095476 0.0026755221 0.033725496 0.03161869 -0.0887912 -0.1518242 -0.33129638 -0.13270712 0.1338234 -0.37414667 -0.11319062 0.010791831 0.14635167 -0.4015347 -0.25031316 0.3384355 -0.06223216 -0.0567969 0.044367466 0.086392485 -0.24155588 0.06172509 0.47438097 0.24318254 0.40444264 -0.3613901 0.11285613 0.3299618 0.06451909 0.4095247 0.49726745 0.016021932 -0.10936411 0.015414586 -0.02234928 -0.2965505 -0.031795073 -0.008361569 -0.13404234 0.034066163 -0.05514421 -0.08136997
fall 0.49120018 -0.24075647 0.06275889 0.095098205 -0.11906897 0.02253975 0.07873285 -0.5849721 -0.020040771 -0.14154314 -0.2438311 0.25518283 0.055066682 0.18854885 -0.2409807 0.45451295 0.0729416 0.08592342 -0.24101725 0.07809137 0.37308785 -0.025736919 0.15018031 -0.008825685 -0.24054217 0.34933618 0.021948673 0.43275884 0.22168589 -0.22026533 -0.019635687 0.07360327 -0.077581234 -0.15492758 -0.44009417 -0.030678121 0.2200074 0.3689414 0.29007483 0.15468536 -0.25417218 -0.11552357 -0.066536166 -0.5713435 0.060841277 -0.19076854 -0.072840065 0.07623406 0.21433912 0.29376686 0.061367646 0.33273748 0.27424538 0.028997624 0.30034503 -0.27885896 0.26805633 -0.35153148 -0.495032 0.02732925 0.0048199585 0.0450175 -0.058497064 -0.14659145 -0.36616084 -0.09692563 0.15368745 -0.35357037 -0.1675776 0.0031258455 0.15504459 -0.41587493 -0.2186181 0.31325346 -0.0630699 -0.047556706 0.031962607 0.032087855 -0.2100033 0.023074273 0.428946 0.22261508 0.38920173 -0.3218623 0.08469782 0.30017024 0.04500701 0.38902622 0.44424966 -0.025783148 -0.1283676 0.015980499 -0.0047988165 -0.2520256 -0.015972419 -0.02884136 -0.11208354 -0.003439878 -0.049073245 -0.12277021
waters 0.45891997 -0.20023946 -0.013789474 -0.107466735 -0.13744666 0.08378761 0.20026842 -0.5003734 -0.0066047614 0.020162586 -0.25352365 0.17493102 0.09087665 0.18095908 -0.120139904 0.5659576 0.11498801 0.14423779 -0.16158538 -0.036247652 0.33780476 -0.02170125 0.15768845 0.12786776 -0.22683105 0.33525974 0.14695042 0.5233869 0.14213684 -0.27338773 0.09060716 0.050278593 -0.17239511 -0.25405246 -0.5284975 0.04728585 0.19524387 0.5493295 0.25440544 0.08548714 -0.15025721 -0.24578092 -0.25031745 -0.65624505 -0.118043624 -0.15172166 0.10103729 0.11995346 0.33177698 0.3137167 0.20000751 0.47913805 0.31981322 0.014460134 0.3213801 -0.33182275 0.27686036 -0.34385875 -0.6655554 -0.10282495 0.107412934 -0.0277878 -0.08306543 -0.14898153 -0.12276761 0.05585382 0.2575727 -0.2497625 -0.12103213 0.009402523 0.037034318 -0.26762697 -0.16520657 0.30541226 0.05217498 -0.12446564 0.04401209 0.09179569 -0.26381028 0.10158245 0.5017311 0.15110949 0.46972492 -0.50809234 0.17390361 0.32536238 0.19246522 0.40532553 0.52341825 0.0319312 -0.0010270282 0.088116236 -0.05072574 -0.19212198 -0.058957327 0.0149439145 0.0886237 0.0053464943 0.009458406 -0.10884919
open 0.58047295 -0.18068576 -0.02492765 -0.027690157 -0.120183595 0.14386211 0.26776773 -0.56383055 -0.03525193 0.03243742 -0.23237652 0.20712973 0.08706391 0.11295708 -0.17920405 0.52638817 0.13050887 0.13266398 -0.23247904 0.003233134 0.335652 -0.02024067 0.17842098 0.12747842 -0.21369095 0.3693386 0.15504025 0.5130554 0.12503234 -0.32650936 0.13590685 0.05773743 -0.18763323 -0.26969895 -0.51344806 0.08129401 0.23005696 0.5378835 0.33270946 0.19392097 -0.1600013 -0.28518683 -0.20201853 -0.6258947 -0.10996674 -0.1791505 0.09439259 0.11137469 0.33888167 0.27084988 0.21396975 0.526463 0.3876896 -0.0025592896 0.30256435 -0.36244205 0.27426058 -0.30161735 -0.6398445 -0.09067415 0.10490638 -0.014236689 -0.03284797 -0.090014786 -0.20970683 0.13083138 0.28732833 -0.21674022 -0.23798667 0.003924258 0.05515658 -0.28042954 -0.12789015 0.26617765 0.066959135 -0.12317907 0.027996106 0.024438886 -0.22238383 0.089692235 0.44442916 0.15211609 0.46826586 -0.52334994 0.16841142 0.32672426 0.1655852 0.42128214 0.49064744 -0.046349406 -0.00524749 0.078154214 -0.045369267 -0.18065919 -0.014307271 -0.017491724 0.07087436 0.009295299 -0.0045866133 -0.15614744
with 0.604096 -0.22555397 0.020275388 0.030349689 -0.13766758 0.08684616 0.19487116 -0.6291699 -0.026581578 -0.051160425 -0.26074147 0.25555816 0.089535296 0.16035649 -0.23954692 0.5358004 0.116556145 0.11376885 -0.25297308 0.030495731 0.38462353 -0.026695218 0.18923649 0.0571656 -0.2616324 0.3795071 0.09163813 0.52950984 0.18499646 -0.3006642 0.062243223 0.046592686 -0.13842037 -0.24099739 -0.519334 0.034856293 0.2385038 0.4963114 0.34076145 0.18112072 -0.23350479 -0.22543247 -0.14348742 -0.67942494 -0.03274446 -0.19024283 0.013727669 0.096663415 0.31695345 0.29795796 0.1647033 0.48028207 0.38641453 0.035711084 0.32173023 -0.3487442 0.28656328 -0.3620546 -0.6267751 -0.03605239 0.074430965 0.024686443 -0.058821585 -0.105690636 -0.3093769 0.026400946 0.25430578 -0.3278174 -0.2305085 0.012386932 0.114398524 -0.3816047 -0.19302101 0.3001589 0.0142120505 -0.09711226 0.036629695 0.040570952 -0.22313404 0.073119 0.47262818 0.1984428 0.4766924 -0.48193222 0.15741651 0.3397054 0.12707855 0.44169322 0.5032925 -0.0448722 -0.041057486 0.057753112 -0.02622222 -0.24150686 -0.012477366 -0.017322104 -0.032354306 0.0044409507 -0.030358315 -0.16079284
know 0.6773666 -0.031880163 -0.05609185 0.0061832024 -0.12502186 0.206214 0.34994605 -0.47427592 -0.057578247 0.10177377 -0.12962231 0.15789966 0.081069395 -0.015648523 -0.19643965 0.47445214 0.044389557 0.13553151 -0.24989514 -0.0068687154 0.2770172 -0.016134264 0.10772891 0.19963339 -0.15357985 0.3943952 0.24991229 0.38346797 0.09359504 -0.39320326 0.24738708 0.00920731 -0.23222578 -0.21858463 -0.4393901 0.2075847 0.2795448 0.4579157 0.414053 0.35070926 -0.068221256 -0.29369298 -0.17056865 -0.49863064 -0.1834095 -0.11370775 0.13335615 0.15645166 0.3450239 0.11953448 0.28150803 0.57576746 0.38793862 -0.034246642 0.22519626 -0.41174802 0.18975429 -0.18846856 -0.58288413 -0.10539994 0.11475786 -0.031445548 0.02306027 0.0064052446 -0.17527409 0.3189007 0.4093208 -0.07033338 -0.3549611 -0.012434378 -0.009321034 -0.20684534 -0.0592824 0.18140782 0.14247249 -0.102955826 0.031129282 -0.109420024 -0.107052825 0.029076086 0.29181442 0.08670796 0.45388916 -0.54862875 0.16261232 0.28562167 0.18924935 0.35081702 0.38549837 -0.11801587 0.038674083 0.11011855 -0.045327604 -0.051827125 0.042875685 -0.019812372 0.14745139 -0.053238347 0.036335517 -0.2109776
looks 0.6087541 -0.13012916 -0.050553054 0.022747386 -0.12514678 0.14235188 0.2764684 -0.5558846 -0.058004603 0.012352228 -0.19102508 0.1845465 0.08722161 0.07489149 -0.18693723 0.46975142 0.10894578 0.09131235 -0.22236966 0.01350565 0.30803367 -0.032887626 0.17838046 0.15757543 -0.19963916 0.37061206 0.14643471 0.46364832 0.117366225 -0.3309729 0.14120676 0.02447701 -0.16171849 -0.25585976 -0.45463648 0.096141264 0.21153861 0.502625 0.3627976 0.25145438 -0.13007884 -0.26217112 -0.14585045 -0.5708173 -0.0971094 -0.16618776 0.09047339 0.11763688 0.31861368 0.2324992 0.2216258 0.50143784 0.3925858 -0.016948245 0.2765842 -0.3397565 0.2218366 -0.24466667 -0.54803306 -0.062852375 0.1019299 0.0127972355 -0.01841879 -0.047456067 -0.23415047 0.15577108 0.32189444 -0.21487944 -0.2859143 -0.007570923 0.071212575 -0.28131896 -0.118856356 0.24353938 0.07728301 -0.09748026 0.015424609 -0.039602827 -0.17448567 0.08049925 0.360956 0.12275783 0.45850232 -0.49296793 0.15613538 0.28659198 0.13824779 0.39271504 0.43930092 -0.09841535 -0.016767345 0.07976754 -0.022859724 -0.12674259 0.007560853 -0.03866733 0.045374285 -0.036884595 -0.0059590926 -0.19020426
at 0.58388746 -0.21494684 0.0046118256 -0.01851485 -0.13955149 0.106823556 0.24034546 -0.60589427 -0.023446158 -0.009224931 -0.24964353 0.230578 0.09327394 0.14819174 -0.19495699 0.545543 0.13515304 0.1241251 -0.2344287 0.003781203 0.37627682 -0.0391091 0.18267918 0.09674835 -0.24917965 0.39557737 0.1301835 0.54564476 0.16718054 -0.31612685 0.09800421 0.052170217 -0.16266268 -0.25878614 -0.53735405 0.058247454 0.23166008 0.5400477 0.33531073 0.16895226 -0.1946215 -0.26396677 -0.1997691 -0.68169034 -0.0729186 -0.17899336 0.056277905 0.11731558 0.33257097 0.3061299 0.20897956 0.5082695 0.39126152 0.02347485 0.32245263 -0.36486885 0.28387246 -0.3551134 -0.6477344 -0.08162826 0.09853257 0.015770718 -0.06057326 -0.110825285 -0.25589973 0.0543276 0.2742627 -0.29491115 -0.21533757 0.0013195287 0.08690529 -0.35296452 -0.17776343 0.3101082 0.045964193 -0.10906762 0.038045354 0.049166214 -0.24310254 0.091795266 0.47537503 0.17679682 0.49013004 -0.5200913 0.16895604 0.3632263 0.1588016 0.4485636 0.53072894 -0.024032619 -0.01873495 0.072321914 -0.04434591 -0.20997915 -0.022571586 -0.0039660577 0.034830157 0.002128125 -0.017724194 -0.15753494
get 0.5004682 -0.23781605 0.06849755 0.109081864 -0.12237972 0.012516446 0.074832164 -0.6210285 -0.0061317766 -0.14355254 -0.25645676 0.29478645 0.050167236 0.18332572 -0.2683712 0.43113026 0.06578784 0.07343528 -0.2564524 0.09136196 0.38279557 -0.022288466 0.17280872 -0.04007516 -0.2584736 0.34138012 0.003896258 0.42818558 0.23002471 -0.22911832 -0.04218257 0.062186982 -0.07379446 -0.14570463 -0.4176726 -0.047026336 0.21245694 0.35088834 0.2890388 0.1578593 -0.28179693 -0.108657636 -0.050582573 -0.5661755 0.07572953 -0.21160871 -0.10569567 0.0649462 0.20696123 0.28645903 0.0695346 0.3149623 0.28397754 0.063380815 0.28000003 -0.26971662 0.2556257 -0.35436338 -0.48542795 0.032399386 0.0045955908 0.06929202 -0.040208556 -0.12251058 -0.421368 -0.1063921 0.16152178 -0.37222663 -0.18638898 0.008027012 0.1630238 -0.43459678 -0.21924797 0.30488583 -0.056354146 -0.028383432 0.043139935 0.024632229 -0.18897198 0.016572876 0.40076837 0.23378679 0.3959371 -0.3064375 0.09660382 0.3020375 0.02728591 0.3862493 0.42764518 -0.039148048 -0.1290363 0.0013820954 -0.013800967 -0.2582753 0.003547879 -0.045672607 -0.16167726 0.0058054538 -0.060735665 -0.11444645
gonna 0.54540426 -0.2362707 0.058111098 0.09451722 -0.12542036 0.036581393 0.11289863 -0.65176874 -0.026413782 -0.123930864 -0.26775596 0.27585417 0.062902205 0.17102921 -0.25789022 0.51219505 0.07626664 0.10468506 -0.26065472 0.071567014 0.40203717 -0.024819614 0.1599237 0.026839836 -0.24543509 0.3700974 0.045699537 0.46109515 0.23555794 -0.25957552 0.00891574 0.060499635 -0.095928386 -0.1945383 -0.46935824 -0.0012886599 0.23428535 0.43252572 0.33009288 0.19647947 -0.25849715 -0.15995511 -0.092456706 -0.6196578 0.04648889 -0.2180243 -0.06605012 0.07727027 0.24977832 0.3009859 0.10186786 0.39386022 0.31365058 0.029597629 0.3066748 -0.3045816 0.2885335 -0.37894976 -0.5620092 0.019349452 0.025887152 0.05044273 -0.04242404 -0.13794164 -0.38810322 -0.062492926 0.204563 -0.36043712 -0.19602486 0.009802469 0.1426083 -0.42708454 -0.22617689 0.32192883 -0.03979869 -0.062466145 0.030896395 0.036900125 -0.22377674 0.033684578 0.4566889 0.22448929 0.43886685 -0.3759818 0.10639069 0.3145856 0.064346455 0.42131984 0.47976628 -0.044026397 -0.110307656 0.03590903 -0.0063788346 -0.24876499 -0.004933216 -0.038723063 -0.10099677 0.008663356 -0.0524407 -0.13582425
down 0.5693405 -0.20456804 0.008395701 0.03511354 -0.12439064 0.09348696 0.18724419 -0.5934535 -0.022652887 -0.05101363 -0.23955788 0.24153984 0.07628654 0.13999775 -0.22028926 0.5207536 0.0868225 0.118712924 -0.23790109 0.03286971 0.36310112 -0.032651898 0.16172525 0.08438437 -0.22541003 0.37345544 0.10758589 0.47270477 0.18216448 -0.29181534 0.06801151 0.048627947 -0.143961 -0.21515295 -0.48306456 0.04700966 0.23560923 0.47411245 0.3222473 0.19797659 -0.21245758 -0.2171551 -0.13323607 -0.6267554 -0.046294965 -0.18308206 0.016823785 0.10221806 0.2919166 0.27667862 0.15863219 0.4510539 0.3538538 0.008815535 0.2958478 -0.34002948 0.2685795 -0.32933047 -0.5857887 -0.02640667 0.056001406 0.016882647 -0.045942374 -0.10321276 -0.28224167 0.03567864 0.26044378 -0.28188017 -0.21695812 0.009709749 0.09562466 -0.3514277 -0.17260323 0.29664007 0.017320799 -0.08333385 0.04069673 0.020664804 -0.20840272 0.05088024 0.44658187 0.18687941 0.4515287 -0.45430216 0.1421494 0.31927985 0.11997036 0.41671026 0.47277352 -0.041469645 -0.05364251 0.061307583 -0.02511678 -0.2030554 -0.0032987476 -0.02444909 -0.014457399 -0.0020661282 -0.023865677 -0.15195963
some 0.6052085 -0.23065744 0.018924354 0.045527197 -0.14125939 0.096929796 0.19909371 -0.65979975 -0.021108963 -0.046400443 -0.2576557 0.27074605 0.09182332 0.14579111 -0.24707955 0.5324616 0.10576563 0.11177882 -0.26099256 0.052224904 0.38861972 -0.031811457 0.19721776 0.07215073 -0.25331345 0.38874495 0.09057335 0.5185319 0.19458915 -0.30025256 0.058968097 0.051325135 -0.13829517 -0.22872539 -0.52614594 0.026027504 0.24258845 0.49947056 0.3541672 0.19145334 -0.24545808 -0.21999606 -0.13386586 -0.66968596 -0.02708168 -0.20470619 0.005845442 0.09116501 0.306753 0.2968444 0.16686821 0.4758754 0.38496336 0.02947614 0.3162658 -0.34579244 0.29050136 -0.36187428 -0.61959815 -0.025460329 0.073944144 0.023422837 -0.045984693 -0.102198556 -0.34054023 0.025712144 0.2514729 -0.32555097 -0.24051587 0.0054802173 0.12063192 -0.39404574 -0.2012333 0.31577763 0.0050958674 -0.08463775 0.029967003 0.028394237 -0.22114465 0.072355896 0.46456504 0.20465873 0.4785778 -0.46963802 0.14870171 0.3488043 0.11304005 0.44685033 0.50723207 -0.048135184 -0.059703678 0.047911428 -0.033035763 -0.23575348 -0.0038598487 -0.029654365 -0.053513285 0.0008458438 -0.034681264 -0.15833426
overflowing 0.33839634 -0.15829663 -0.010532888 -0.110031165 -0.10592855 0.07663477 0.16731009 -0.36556596 -0.005986454 0.047666643 -0.20516025 0.1264137 0.07677505 0.14313994 -0.085398875 0.4464459 0.101719946 0.13024208 -0.1044257 -0.05078355 0.26436955 -0.018194495 0.1147155 0.097945236 -0.1672395 0.2654284 0.12655748 0.4181143 0.09933861 -0.21317174 0.06977004 0.03527386 -0.13268311 -0.20510241 -0.4300746 0.041251905 0.14555232 0.4534008 0.18862171 0.03811324 -0.11594966 -0.21064828 -0.22178541 -0.5362239 -0.11280989 -0.104396634 0.11321256 0.09008135 0.2725886 0.25145787 0.17077616 0.3974889 0.24951324 0.01196815 0.2521241 -0.2585273 0.21475706 -0.2671208 -0.54157794 -0.10369201 0.10280232 -0.02124329 -0.07269939 -0.11955279 -0.04201429 0.056660485 0.1979416 -0.18186173 -0.08129365 -0.0041911723 0.009074558 -0.19214138 -0.13051291 0.23530787 0.042634513 -0.11049782 0.024054095 0.103084 -0.22393169 0.10348314 0.39960057 0.10018496 0.3656106 -0.42409226 0.14659072 0.26733097 0.16559024 0.31841162 0.42525852 0.037655365 0.028474923 0.067384474 -0.04706068 -0.13592334 -0.055171102 0.023977617 0.10541291 0.018802227 0.0059092515 -0.07316858
but 0.6331995 -0.1823196 0.0035157292 0.028290235 -0.13690959 0.10677097 0.23105973 -0.61845446 -0.041060816 -0.028899904 -0.24126776 0.24500759 0.082377866 0.121933654 -0.22792415 0.5384627 0.09284024 0.12411442 -0.26658154 0.023764089 0.3688697 -0.027015232 0.1713465 0.09008007 -0.24056183 0.39722732 0.13385329 0.49561176 0.17803368 -0.3325607 0.098218806 0.040784787 -0.15500705 -0.22577111 -0.5102433 0.074575186 0.25482407 0.50484717 0.36376956 0.23192239 -0.19830821 -0.24447429 -0.14454766 -0.6522293 -0.068881795 -0.18298042 0.033972133 0.11171097 0.31471673 0.26808366 0.18596108 0.51134086 0.3779784 0.009042392 0.31713623 -0.37511054 0.26891035 -0.34019524 -0.6279996 -0.049176358 0.07178038 0.022560246 -0.037489973 -0.088567816 -0.29532838 0.0856306 0.3035341 -0.27766904 -0.263547 0.0036016144 0.089950755 -0.3574917 -0.16642761 0.28768894 0.04132406 -0.08643641 0.042978078 -0.0024306383 -0.20533007 0.0526075 0.44546947 0.17988017 0.48317724 -0.5038868 0.15158412 0.33676392 0.13800296 0.42732957 0.49312496 -0.0614045 -0.047149133 0.07513461 -0.025986372 -0.20246065 0.008424182 -0.018650398 0.011487246 -0.019569257 -0.016817652 -0.17926398
here 0.6841677 -0.1657007 -0.034757495 0.011434206 -0.13731268 0.15030858 0.2890892 -0.6256109 -0.044553947 0.015890853 -0.22392184 0.234535 0.10165711 0.09406011 -0.23236795 0.5828204 0.108220495 0.13767768 -0.26261064 0.004591452 0.36685285 -0.023601215 0.17226936 0.15726626 -0.23158118 0.42653632 0.18726626 0.5288196 0.1559597 -0.3586196 0.15277645 0.046428397 -0.1959226 -0.2770012 -0.55505407 0.1221674 0.27675924 0.56745404 0.40082255 0.26908365 -0.18607312 -0.29573324 -0.18774284 -0.67316556 -0.1171882 -0.18109325 0.08660707 0.12571155 0.35832858 0.26009223 0.22788963 0.58638954 0.4285856 -0.016490074 0.31572714 -0.4124153 0.27447134 -0.31584516 -0.6823945 -0.07170256 0.101479016 -0.003409484 -0.025782654 -0.06877769 -0.26578748 0.16201398 0.3564161 -0.24459322 -0.30476183 0.0061203944 0.070094295 -0.32493082 -0.14630884 0.28833252 0.07889259 -0.11503873 0.039521366 -0.015894445 -0.21195246 0.08226939 0.45878103 0.15646397 0.5209069 -0.5653995 0.17952524 0.34363285 0.17458403 0.457427 0.50937116 -0.077915154 -0.018633498 0.085644804 -0.036571145 -0.1720433 0.0047565564 -0.031101173 0.060770877 -0.0119461585 0.0006292455 -0.20410962
action 0.6198722 -0.0817421 -0.056784194 -0.0024751532 -0.11020596 0.17896788 0.3051338 -0.47616932 -0.04399524 0.053307485 -0.15626696 0.15906474 0.07511391 0.031034805 -0.19231595 0.49291033 0.074427254 0.11081608 -0.24277702 -0.01137827 0.28725034 -0.01202773 0.13252942 0.17653573 -0.1646611 0.37377232 0.2228556 0.43376973 0.106465064 -0.3462745 0.18332016 0.02114096 -0.20223038 -0.2324208 -0.44394863 0.16417545 0.23774444 0.47374433 0.3618295 0.27291706 -0.11711603 -0.2806276 -0.16624866 -0.54201734 -0.16003934 -0.13157924 0.12451521 0.13117604 0.32881883 0.17841505 0.23088604 0.5428731 0.370384 -0.03144884 0.26243153 -0.37627125 0.22109485 -0.21848285 -0.57583475 -0.0886813 0.08819221 -0.025152948 -0.0076165153 -0.019406008 -0.1758748 0.22649448 0.35490116 -0.1204118 -0.30277678 0.0076625054 0.01636619 -0.20810397 -0.078884766 0.20928374 0.11587131 -0.107699804 0.032680895 -0.068728656 -0.1541186 0.039519675 0.34549466 0.094135344 0.43742448 -0.5271973 0.14618455 0.28450936 0.16743362 0.3572002 0.41056657 -0.100239895 0.0019602 0.09991144 -0.028771132 -0.10328658 0.027536526 -0.014546116 0.13066532 -0.027005915 0.025688276 -0.20431218
mothers 0.39601865 -0.19288427 0.012094922 -0.062119525 -0.110936575 0.06501361 0.1489505 -0.44796747 -0.007505656 -0.012944534 -0.22594294 0.16963448 0.07498516 0.16127044 -0.12752628 0.47389492 0.10366404 0.113647215 -0.15049028 -0.015554629 0.297752 -0.020242738 0.13438523 0.064468734 -0.20359129 0.2946383 0.09355001 0.43812865 0.14692107 -0.2166348 0.041691806 0.042699706 -0.12521096 -0.19695859 -0.4516711 0.012132551 0.16992459 0.441248 0.22090761 0.069494665 -0.159654 -0.19143213 -0.18774752 -0.57343173 -0.051788434 -0.13733716 0.056775857 0.090541795 0.25666767 0.2745724 0.1452277 0.39457384 0.26144418 0.027618712 0.2715944 -0.26878735 0.24035685 -0.30907476 -0.5466156 -0.0722856 0.081961386 -0.009005514 -0.07575181 -0.12998535 -0.15474615 0.004088167 0.18278596 -0.2438006 -0.097044535 -0.0020254804 0.060225308 -0.27511764 -0.16503508 0.27213266 0.020489745 -0.09195556 0.029759306 0.09595313 -0.22546834 0.09157579 0.4247078 0.13852395 0.38368034 -0.40956354 0.1285492 0.29126024 0.13972603 0.35149392 0.452667 0.026255148 -0.014490021 0.05624281 -0.03756837 -0.18270442 -0.045375526 0.018068686 0.04204371 0.021442678 -0.004576319 -0.08238513
him 0.66711354 -0.25134417 0.03274933 0.07022591 -0.15178709 0.0800105 0.20750031 -0.73926425 -0.022261776 -0.0856272 -0.28506458 0.30992174 0.07319421 0.18136494 -0.26833266 0.59119815 0.10706318 0.11447802 -0.29655194 0.06462717 0.42842376 -0.049548976 0.19780229 0.038831122 -0.29402462 0.4468793 0.08173858 0.5602816 0.24335675 -0.33323523 0.042591807 0.05708847 -0.13716 -0.23080531 -0.5585497 0.026438493 0.27575177 0.53712815 0.37800056 0.21401754 -0.26885268 -0.22105162 -0.13175307 -0.7374351 0.006873618 -0.22556278 -0.025129646 0.11506966 0.32329765 0.34551057 0.16488929 0.5049166 0.40854025 0.041586995 0.35613236 -0.38837788 0.30859694 -0.4164017 -0.6685566 -0.021430694 0.04494592 0.054650202 -0.056413125 -0.13430889 -0.40357548 -0.002283283 0.27789715 -0.3832589 -0.25414023 0.00071168505 0.1494078 -0.46288323 -0.21937111 0.34712222 -0.0021135018 -0.08790282 0.04626023 0.032072242 -0.24766415 0.05273122 0.51243925 0.23540127 0.5372271 -0.49652836 0.15400143 0.39159733 0.11353332 0.4857268 0.5525203 -0.052178815 -0.08500278 0.049963962 -0.03585466 -0.26595512 0.007732109 -0.024633221 -0.071997836 -0.011931163 -0.03808739 -0.17631121
from 0.5238869 -0.23642083 0.03035867 0.022333601 -0.13391356 0.060652338 0.15521915 -0.6058076 -0.011478701 -0.06733426 -0.26871485 0.25161925 0.06992457 0.17410114 -0.2256944 0.5305001 0.09991275 0.11573643 -0.24106249 0.036202215 0.38238618 -0.027229175 0.1824632 0.050959706 -0.25753716 0.36168307 0.08295682 0.5020202 0.20310086 -0.27336732 0.030538524 0.052811477 -0.12881748 -0.2203039 -0.49551314 0.004868232 0.22731566 0.47525513 0.29784358 0.13736187 -0.22834782 -0.19286492 -0.14725389 -0.6499723 -0.01594461 -0.18942226 -0.008051442 0.100101724 0.28957587 0.30016264 0.15122059 0.43352556 0.3254439 0.032119423 0.31609482 -0.32505345 0.2820491 -0.36516285 -0.6000604 -0.03600951 0.053659577 0.019752592 -0.06311928 -0.12842956 -0.29330024 -0.016485391 0.2161938 -0.3228915 -0.18241198 0.014353112 0.11241121 -0.37136012 -0.20671716 0.31949952 0.0028095222 -0.07651265 0.042792242 0.045062277 -0.24070923 0.068828814 0.46675062 0.20667952 0.45534095 -0.4429382 0.13500156 0.33280578 0.10286819 0.427937 0.49890172 -0.021401051 -0.061658096 0.04188095 -0.022507943 -0.24029613 -0.01104951 -0.016883275 -0.053045973 0.0163005 -0.03375821 -0.12365404
two 0.6048243 -0.17213301 -0.063972026 -0.03438288 -0.11409739 0.16320516 0.2841977 -0.5527286 -0.045717616 0.0686117 -0.20042993 0.2114277 0.13990302 0.08530666 -0.18509513 0.5234593 0.15158078 0.12312728 -0.21143149 0.0020925326 0.3256663 -0.006926471 0.19689322 0.15144762 -0.20974925 0.35705253 0.14815362 0.55235237 0.11174929 -0.32659653 0.16526869 0.046274547 -0.17828323 -0.27558964 -0.5222579 0.10559518 0.21600756 0.5624911 0.3522208 0.18854891 -0.20721707 -0.3208997 -0.20166925 -0.670429 -0.11985811 -0.18471555 0.12423945 0.08715075 0.36754948 0.2604234 0.2082959 0.53055775 0.47522512 -0.024605297 0.30167028 -0.36386943 0.28911397 -0.30932546 -0.67414653 -0.083111644 0.15656883 -0.000964324 -0.013633841 -0.059520695 -0.19887058 0.1572609 0.30448866 -0.24470125 -0.22475299 -0.005677938 0.048533756 -0.27393904 -0.14500362 0.24289387 0.04066022 -0.15130204 0.015515378 0.04332402 -0.22884198 0.14267588 0.42579573 0.16779868 0.5032921 -0.53799 0.2058371 0.3369494 0.17978607 0.42418194 0.45408636 -0.06470878 0.02363596 0.10191378 -0.050910965 -0.1695991 -0.07013679 -0.01865672 0.060305588 -0.0106353825 -0.019563956 -0.176688
dish 0.4634065 -0.15655234 -0.025214331 -0.06706258 -0.10773694 0.103142835 0.22282022 -0.43683073 -0.022131369 0.04792046 -0.18789136 0.15210779 0.108123265 0.106218316 -0.12709469 0.45029715 0.11957124 0.106319495 -0.15607858 -0.0318282 0.275003 -0.022145377 0.1538857 0.10947015 -0.19843926 0.2970936 0.12217824 0.45557243 0.111967966 -0.2497245 0.1107307 0.02907773 -0.14850055 -0.23065038 -0.4456857 0.06514425 0.17572446 0.47902447 0.25747436 0.10103356 -0.13972653 -0.24769154 -0.19696724 -0.587202 -0.095369816 -0.124306396 0.105617754 0.07872153 0.2964794 0.24092023 0.17918377 0.44037944 0.34579015 0.0065921624 0.2625172 -0.289317 0.22750816 -0.27269924 -0.5685308 -0.0921672 0.12558804 -0.0031489744 -0.057126373 -0.077899784 -0.12170543 0.08835947 0.23481202 -0.21943527 -0.1506004 -0.0014053046 0.03187985 -0.2353365 -0.12113593 0.2232503 0.04976257 -0.11738194 0.030451631 0.073835455 -0.19687937 0.10951773 0.3914118 0.113340564 0.40716705 -0.45599526 0.16331053 0.28098083 0.1685721 0.34852207 0.42247677 -0.008128655 0.034277413 0.07901648 -0.048596006 -0.1535451 -0.044767447 0.01005489 0.08034392 0.0032426089 -0.0038084732 -0.12969464
not 0.7377617 -0.17169149 -0.034194183 0.007973897 -0.14627941 0.17068453 0.32945248 -0.65492755 -0.05155398 0.026383331 -0.22892988 0.23670362 0.09248711 0.1001708 -0.23623422 0.6224809 0.12428533 0.13787344 -0.27879843 0.0042811073 0.38965645 -0.032466963 0.1785449 0.17312913 -0.24171145 0.46272665 0.21304916 0.56592715 0.1683211 -0.39128125 0.17366156 0.047933154 -0.21585609 -0.2933476 -0.58742875 0.14328569 0.2870656 0.6175852 0.4286409 0.28596494 -0.17826426 -0.32432854 -0.20859316 -0.7249903 -0.1292668 -0.19016539 0.10295832 0.14489213 0.38854542 0.27692747 0.2650704 0.6281947 0.4637824 -0.015606066 0.34664893 -0.44634396 0.29066327 -0.34459305 -0.7251063 -0.093820035 0.096967995 -0.0053825337 -0.031502455 -0.06968987 -0.27169612 0.18093736 0.38814262 -0.24345389 -0.3250775 0.0034414765 0.068029724 -0.34074983 -0.15134922 0.30639046 0.09194537 -0.12815057 0.0410289 -0.023286393 -0.23099391 0.07713752 0.48116022 0.16282581 0.5561824 -0.61768407 0.1794991 0.37613174 0.18683052 0.47571307 0.54761386 -0.08180192 -0.008509213 0.10270123 -0.0472176 -0.18222931 0.008280152 -0.0130814165 0.08743412 -0.019388951 0.006582334 -0.21759267
sister 0.46758133 -0.28246936 0.118892066 0.14196269 -0.10418071 -0.015913883 0.023597063 -0.64757496 -0.0027005451 -0.18726207 -0.28435987 0.30231196 0.03093382 0.21246277 -0.25987095 0.43085253 0.06778248 0.07851822 -0.2556688 0.11604446 0.3864224 -0.030539338 0.17717798 -0.08492695 -0.2563408 0.3339428 -0.06333169 0.42177117 0.2569139 -0.20306256 -0.08396585 0.06596833 -0.040306814 -0.12453759 -0.40509352 -0.08436524 0.18816751 0.31495363 0.25611812 0.13298497 -0.29528835 -0.06305595 -0.028610615 -0.57364243 0.13936582 -0.20232144 -0.15087855 0.061332233 0.17832017 0.31019193 0.016911209 0.28082457 0.25624555 0.07467072 0.27962777 -0.2433054 0.27033246 -0.3831185 -0.42489558 0.073967025 -0.018376065 0.08891664 -0.06356046 -0.13825622 -0.4515302 -0.17529976 0.113757335 -0.4202745 -0.164271 0.00075526955 0.19177213 -0.47624376 -0.2468162 0.30926058 -0.09191054 -0.019499153 0.04474512 0.057907708 -0.18590488 0.015759794 0.41015786 0.24979568 0.359139 -0.2627423 0.07691712 0.29617807 -0.0075952983 0.39142406 0.43192086 -0.03825951 -0.16229476 -0.002654368 -0.005869773 -0.32029656 -0.0011743734 -0.030592915 -0.21604612 0.013445457 -0.07961512 -0.107271895
